<?xml version="1.0"?>
<MethodSetup Method="BDT::BDTG">
  <GeneralInfo>
    <Info name="TMVA Release" value="4.2.1 [262657]"/>
    <Info name="ROOT Release" value="6.10/09 [395785]"/>
    <Info name="Creator" value="wjjang"/>
    <Info name="Date" value="Fri Feb  1 00:11:15 2019"/>
    <Info name="Host" value="Linux cmsbuild49.cern.ch 2.6.32-696.10.2.el6.x86_64 #1 SMP Thu Sep 14 16:35:02 CEST 2017 x86_64 x86_64 x86_64 GNU/Linux"/>
    <Info name="Dir" value="/cms/ldap_home/wjjang/wj_nanoAOD_CMSSW_9_4_4/src/nano/analysis/test/vts/tmva"/>
    <Info name="Training events" value="129000"/>
    <Info name="TrainingTime" value="1.62998957e+02"/>
    <Info name="AnalysisType" value="Classification"/>
  </GeneralInfo>
  <Options>
    <Option name="V" modified="Yes">False</Option>
    <Option name="VerbosityLevel" modified="No">Default</Option>
    <Option name="VarTransform" modified="No">None</Option>
    <Option name="H" modified="Yes">False</Option>
    <Option name="CreateMVAPdfs" modified="No">False</Option>
    <Option name="IgnoreNegWeightsInTraining" modified="No">False</Option>
    <Option name="NTrees" modified="Yes">1000</Option>
    <Option name="MaxDepth" modified="Yes">2</Option>
    <Option name="MinNodeSize" modified="Yes">2.5%</Option>
    <Option name="nCuts" modified="Yes">20</Option>
    <Option name="BoostType" modified="Yes">Grad</Option>
    <Option name="AdaBoostR2Loss" modified="No">quadratic</Option>
    <Option name="UseBaggedBoost" modified="Yes">True</Option>
    <Option name="Shrinkage" modified="Yes">1.000000e-01</Option>
    <Option name="AdaBoostBeta" modified="No">5.000000e-01</Option>
    <Option name="UseRandomisedTrees" modified="No">False</Option>
    <Option name="UseNvars" modified="No">7</Option>
    <Option name="UsePoissonNvars" modified="No">True</Option>
    <Option name="BaggedSampleFraction" modified="Yes">5.000000e-01</Option>
    <Option name="UseYesNoLeaf" modified="No">True</Option>
    <Option name="NegWeightTreatment" modified="No">pray</Option>
    <Option name="Css" modified="No">1.000000e+00</Option>
    <Option name="Cts_sb" modified="No">1.000000e+00</Option>
    <Option name="Ctb_ss" modified="No">1.000000e+00</Option>
    <Option name="Cbb" modified="No">1.000000e+00</Option>
    <Option name="NodePurityLimit" modified="No">5.000000e-01</Option>
    <Option name="SeparationType" modified="No">giniindex</Option>
    <Option name="RegressionLossFunctionBDTG" modified="No">huber</Option>
    <Option name="HuberQuantile" modified="No">7.000000e-01</Option>
    <Option name="DoBoostMonitor" modified="No">False</Option>
    <Option name="UseFisherCuts" modified="No">False</Option>
    <Option name="MinLinCorrForFisher" modified="No">8.000000e-01</Option>
    <Option name="UseExclusiveVars" modified="No">False</Option>
    <Option name="DoPreselection" modified="No">False</Option>
    <Option name="SigToBkgFraction" modified="No">1.000000e+00</Option>
    <Option name="PruneMethod" modified="No">nopruning</Option>
    <Option name="PruneStrength" modified="No">0.000000e+00</Option>
    <Option name="PruningValFraction" modified="No">5.000000e-01</Option>
    <Option name="SkipNormalization" modified="No">False</Option>
    <Option name="nEventsMin" modified="No">0</Option>
    <Option name="UseBaggedGrad" modified="No">False</Option>
    <Option name="GradBaggingFraction" modified="No">5.000000e-01</Option>
    <Option name="UseNTrainEvents" modified="No">0</Option>
    <Option name="NNodesMax" modified="No">0</Option>
  </Options>
  <Variables NVar="41">
    <Variable VarIndex="0" Expression="pt" Label="pt" Title="pt" Unit="" Internal="pt" Type="F" Min="3.00000000e+01" Max="7.38500000e+02"/>
    <Variable VarIndex="1" Expression="eta" Label="eta" Title="eta" Unit="" Internal="eta" Type="F" Min="-2.39990234e+00" Max="2.39990234e+00"/>
    <Variable VarIndex="2" Expression="phi" Label="phi" Title="phi" Unit="" Internal="phi" Type="F" Min="-3.14160156e+00" Max="3.14160156e+00"/>
    <Variable VarIndex="3" Expression="mass" Label="mass" Title="mass" Unit="" Internal="mass" Type="F" Min="1.07910156e+00" Max="9.05625000e+01"/>
    <Variable VarIndex="4" Expression="c_x1" Label="c_x1" Title="c_x1" Unit="" Internal="c_x1" Type="F" Min="1.15538610e-03" Max="2.14443326e+00"/>
    <Variable VarIndex="5" Expression="c_x2" Label="c_x2" Title="c_x2" Unit="" Internal="c_x2" Type="F" Min="1.15538610e-03" Max="2.15469074e+00"/>
    <Variable VarIndex="6" Expression="c_x3" Label="c_x3" Title="c_x3" Unit="" Internal="c_x3" Type="F" Min="1.15538610e-03" Max="2.16384315e+00"/>
    <Variable VarIndex="7" Expression="n_x1" Label="n_x1" Title="n_x1" Unit="" Internal="n_x1" Type="F" Min="0.00000000e+00" Max="9.59842503e-01"/>
    <Variable VarIndex="8" Expression="n_x2" Label="n_x2" Title="n_x2" Unit="" Internal="n_x2" Type="F" Min="0.00000000e+00" Max="9.69182193e-01"/>
    <Variable VarIndex="9" Expression="n_x3" Label="n_x3" Title="n_x3" Unit="" Internal="n_x3" Type="F" Min="0.00000000e+00" Max="9.83776569e-01"/>
    <Variable VarIndex="10" Expression="cmult" Label="cmult" Title="cmult" Unit="" Internal="cmult" Type="I" Min="0.00000000e+00" Max="4.40000000e+01"/>
    <Variable VarIndex="11" Expression="nmult" Label="nmult" Title="nmult" Unit="" Internal="nmult" Type="I" Min="0.00000000e+00" Max="2.90000000e+01"/>
    <Variable VarIndex="12" Expression="axis1" Label="axis1" Title="axis1" Unit="" Internal="axis1" Type="F" Min="0.00000000e+00" Max="2.78307825e-01"/>
    <Variable VarIndex="13" Expression="axis2" Label="axis2" Title="axis2" Unit="" Internal="axis2" Type="F" Min="0.00000000e+00" Max="1.71734512e-01"/>
    <Variable VarIndex="14" Expression="ptD" Label="ptD" Title="ptD" Unit="" Internal="ptD" Type="F" Min="1.79456472e-01" Max="1.00000000e+00"/>
    <Variable VarIndex="15" Expression="area" Label="area" Title="area" Unit="" Internal="area" Type="F" Min="2.99316406e-01" Max="8.37890625e-01"/>
    <Variable VarIndex="16" Expression="CSVV2" Label="CSVV2" Title="CSVV2" Unit="" Internal="CSVV2" Type="F" Min="-1.00000000e+01" Max="9.99511719e-01"/>
    <Variable VarIndex="17" Expression="KS_d" Label="KS_d" Title="KS_d" Unit="" Internal="KS_d" Type="F" Min="-9.90000000e+01" Max="3.59798012e+01"/>
    <Variable VarIndex="18" Expression="KS_pt" Label="KS_pt" Title="KS_pt" Unit="" Internal="KS_pt" Type="F" Min="-9.90000000e+01" Max="2.16273438e+02"/>
    <Variable VarIndex="19" Expression="KS_eta" Label="KS_eta" Title="KS_eta" Unit="" Internal="KS_eta" Type="F" Min="-9.90000000e+01" Max="2.64086914e+00"/>
    <Variable VarIndex="20" Expression="KS_phi" Label="KS_phi" Title="KS_phi" Unit="" Internal="KS_phi" Type="F" Min="-9.90000000e+01" Max="3.14147949e+00"/>
    <Variable VarIndex="21" Expression="KS_mass" Label="KS_mass" Title="KS_mass" Unit="" Internal="KS_mass" Type="F" Min="-9.90000000e+01" Max="6.97601318e-01"/>
    <Variable VarIndex="22" Expression="KS_lxy" Label="KS_lxy" Title="KS_lxy" Unit="" Internal="KS_lxy" Type="F" Min="-9.90000000e+01" Max="8.30276184e+01"/>
    <Variable VarIndex="23" Expression="KS_lxySig" Label="KS_lxySig" Title="KS_lxySig" Unit="" Internal="KS_lxySig" Type="F" Min="-9.90000000e+01" Max="4.93902393e+03"/>
    <Variable VarIndex="24" Expression="KS_l3D" Label="KS_l3D" Title="KS_l3D" Unit="" Internal="KS_l3D" Type="F" Min="-9.90000000e+01" Max="2.75088257e+02"/>
    <Variable VarIndex="25" Expression="KS_l3DSig" Label="KS_l3DSig" Title="KS_l3DSig" Unit="" Internal="KS_l3DSig" Type="F" Min="-9.90000000e+01" Max="5.97896826e+03"/>
    <Variable VarIndex="26" Expression="KS_legDR" Label="KS_legDR" Title="KS_legDR" Unit="" Internal="KS_legDR" Type="F" Min="-9.90000000e+01" Max="3.14034319e+00"/>
    <Variable VarIndex="27" Expression="KS_angleXY" Label="KS_angleXY" Title="KS_angleXY" Unit="" Internal="KS_angleXY" Type="F" Min="-9.90000000e+01" Max="1.00000000e+00"/>
    <Variable VarIndex="28" Expression="KS_angleXYZ" Label="KS_angleXYZ" Title="KS_angleXYZ" Unit="" Internal="KS_angleXYZ" Type="F" Min="-9.90000000e+01" Max="1.00000000e+00"/>
    <Variable VarIndex="29" Expression="KS_chi2" Label="KS_chi2" Title="KS_chi2" Unit="" Internal="KS_chi2" Type="F" Min="-1.07492188e+02" Max="9.99951172e+00"/>
    <Variable VarIndex="30" Expression="KS_dca" Label="KS_dca" Title="KS_dca" Unit="" Internal="KS_dca" Type="F" Min="-9.90000000e+01" Max="1.99926853e+00"/>
    <Variable VarIndex="31" Expression="KS_dau1_chi2" Label="KS_dau1_chi2" Title="KS_dau1_chi2" Unit="" Internal="KS_dau1_chi2" Type="F" Min="-9.90000000e+01" Max="1.02557312e+05"/>
    <Variable VarIndex="32" Expression="KS_dau1_ipsigXY" Label="KS_dau1_ipsigXY" Title="KS_dau1_ipsigXY" Unit="" Internal="KS_dau1_ipsigXY" Type="F" Min="-9.90000000e+01" Max="2.38365918e+03"/>
    <Variable VarIndex="33" Expression="KS_dau1_ipsigZ" Label="KS_dau1_ipsigZ" Title="KS_dau1_ipsigZ" Unit="" Internal="KS_dau1_ipsigZ" Type="F" Min="-9.90000000e+01" Max="6.67938232e+03"/>
    <Variable VarIndex="34" Expression="KS_dau1_pt" Label="KS_dau1_pt" Title="KS_dau1_pt" Unit="" Internal="KS_dau1_pt" Type="F" Min="-9.90000000e+01" Max="1.56750000e+02"/>
    <Variable VarIndex="35" Expression="KS_dau2_chi2" Label="KS_dau2_chi2" Title="KS_dau2_chi2" Unit="" Internal="KS_dau2_chi2" Type="F" Min="-9.90000000e+01" Max="1.99975189e+02"/>
    <Variable VarIndex="36" Expression="KS_dau2_ipsigXY" Label="KS_dau2_ipsigXY" Title="KS_dau2_ipsigXY" Unit="" Internal="KS_dau2_ipsigXY" Type="F" Min="-9.90000000e+01" Max="1.84505347e+03"/>
    <Variable VarIndex="37" Expression="KS_dau2_ipsigZ" Label="KS_dau2_ipsigZ" Title="KS_dau2_ipsigZ" Unit="" Internal="KS_dau2_ipsigZ" Type="F" Min="-9.90000000e+01" Max="4.55525537e+03"/>
    <Variable VarIndex="38" Expression="KS_dau2_pt" Label="KS_dau2_pt" Title="KS_dau2_pt" Unit="" Internal="KS_dau2_pt" Type="F" Min="-9.90000000e+01" Max="1.44076431e+02"/>
    <Variable VarIndex="39" Expression="KS_best_bdt" Label="KS_best_bdt" Title="KS_best_bdt" Unit="" Internal="KS_best_bdt" Type="F" Min="-9.90000000e+01" Max="2.95087755e-01"/>
    <Variable VarIndex="40" Expression="KS_x" Label="KS_x" Title="KS_x" Unit="" Internal="KS_x" Type="F" Min="-9.90000000e+01" Max="1.17931759e+00"/>
  </Variables>
  <Spectators NSpec="0"/>
  <Classes NClass="2">
    <Class Name="Signal" Index="0"/>
    <Class Name="Background" Index="1"/>
  </Classes>
  <Transformations NTransformations="0"/>
  <MVAPdfs/>
  <Weights NTrees="1000" AnalysisType="1">
    <BinaryTree type="DecisionTree" boostWeight="1.0000000000000000e+00" itree="0">
      <Node pos="s" depth="0" NCoef="0" IVar="16" Cut="4.7572544217109680e-01" cType="1" res="1.6359675209969282e-03" rms="4.9999731779098511e-01" purity="5.0163596868515015e-01" nType="0">
        <Node pos="l" depth="1" NCoef="0" IVar="13" Cut="4.0414672344923019e-02" cType="1" res="3.4230977296829224e-01" rms="3.6445030570030212e-01" purity="8.4230977296829224e-01" nType="0">
          <Node pos="l" depth="2" NCoef="0" IVar="-1" Cut="0.0000000000000000e+00" cType="1" res="7.3123089969158173e-02" rms="3.2273459434509277e-01" purity="8.8189315795898438e-01" nType="-99"/>
          <Node pos="r" depth="2" NCoef="0" IVar="-1" Cut="0.0000000000000000e+00" cType="1" res="4.9786590039730072e-02" rms="4.2912170290946960e-01" purity="7.5662147998809814e-01" nType="-99"/>
        </Node>
        <Node pos="r" depth="1" NCoef="0" IVar="16" Cut="7.7507674694061279e-01" cType="1" res="-3.7510895729064941e-01" rms="3.3059534430503845e-01" purity="1.2489105015993118e-01" nType="0">
          <Node pos="l" depth="2" NCoef="0" IVar="-1" Cut="0.0000000000000000e+00" cType="1" res="-1.4657910913228989e-02" rms="4.9465346336364746e-01" purity="4.2707574367523193e-01" nType="-99"/>
          <Node pos="r" depth="2" NCoef="0" IVar="-1" Cut="0.0000000000000000e+00" cType="1" res="-9.7969584167003632e-02" rms="1.8013164401054382e-01" purity="3.3574666827917099e-02" nType="-99"/>
        </Node>
      </Node>
    </BinaryTree>
    <BinaryTree type="DecisionTree" boostWeight="1.0000000000000000e+00" itree="1">
      <Node pos="s" depth="0" NCoef="0" IVar="16" Cut="4.7572544217109680e-01" cType="1" res="2.8092532884329557e-03" rms="4.7171041369438171e-01" purity="5.0154131650924683e-01" nType="0">
        <Node pos="l" depth="1" NCoef="0" IVar="12" Cut="6.0735911130905151e-02" cType="1" res="3.1018170714378357e-01" rms="3.6304143071174622e-01" purity="8.4303212165832520e-01" nType="0">
          <Node pos="l" depth="2" NCoef="0" IVar="-1" Cut="0.0000000000000000e+00" cType="1" res="6.8256914615631104e-02" rms="3.1175240874290466e-01" purity="8.9084029197692871e-01" nType="-99"/>
          <Node pos="r" depth="2" NCoef="0" IVar="-1" Cut="0.0000000000000000e+00" cType="1" res="4.9058359116315842e-02" rms="4.1276368498802185e-01" purity="7.8161567449569702e-01" nType="-99"/>
        </Node>
        <Node pos="r" depth="1" NCoef="0" IVar="16" Cut="7.5013953447341919e-01" cType="1" res="-3.3840420842170715e-01" rms="3.1922289729118347e-01" purity="1.2245319038629532e-01" nType="0">
          <Node pos="l" depth="2" NCoef="0" IVar="-1" Cut="0.0000000000000000e+00" cType="1" res="-9.2074442654848099e-03" rms="4.9715903401374817e-01" purity="4.4677495956420898e-01" nType="-99"/>
          <Node pos="r" depth="2" NCoef="0" IVar="-1" Cut="0.0000000000000000e+00" cType="1" res="-8.8224694132804871e-02" rms="1.8547368049621582e-01" purity="3.6125496029853821e-02" nType="-99"/>
        </Node>
      </Node>
    </BinaryTree>
    <BinaryTree type="DecisionTree" boostWeight="1.0000000000000000e+00" itree="2">
      <Node pos="s" depth="0" NCoef="0" IVar="16" Cut="4.7572544217109680e-01" cType="1" res="1.9755349494516850e-03" rms="4.4764667749404907e-01" purity="4.9925196170806885e-01" nType="0">
        <Node pos="l" depth="1" NCoef="0" IVar="13" Cut="4.0889170020818710e-02" cType="1" res="2.7958780527114868e-01" rms="3.6341363191604614e-01" purity="8.4200847148895264e-01" nType="0">
          <Node pos="l" depth="2" NCoef="0" IVar="-1" Cut="0.0000000000000000e+00" cType="1" res="6.0387551784515381e-02" rms="3.2775995135307312e-01" purity="8.7733292579650879e-01" nType="-99"/>
          <Node pos="r" depth="2" NCoef="0" IVar="-1" Cut="0.0000000000000000e+00" cType="1" res="4.1750591248273849e-02" rms="4.2497134208679199e-01" purity="7.6328414678573608e-01" nType="-99"/>
        </Node>
        <Node pos="r" depth="1" NCoef="0" IVar="16" Cut="8.0001395940780640e-01" cType="1" res="-3.0327022075653076e-01" rms="3.1239569187164307e-01" purity="1.2237756699323654e-01" nType="0">
          <Node pos="l" depth="2" NCoef="0" IVar="-1" Cut="0.0000000000000000e+00" cType="1" res="-1.5720523893833160e-02" rms="4.8603123426437378e-01" purity="3.9913585782051086e-01" nType="-99"/>
          <Node pos="r" depth="2" NCoef="0" IVar="-1" Cut="0.0000000000000000e+00" cType="1" res="-8.2978658378124237e-02" rms="1.6090850532054901e-01" purity="2.6599057018756866e-02" nType="-99"/>
        </Node>
      </Node>
    </BinaryTree>
    <BinaryTree type="DecisionTree" boostWeight="1.0000000000000000e+00" itree="3">
      <Node pos="s" depth="0" NCoef="0" IVar="16" Cut="4.7572544217109680e-01" cType="1" res="6.3093816861510277e-03" rms="4.2714124917984009e-01" purity="5.0378417968750000e-01" nType="0">
        <Node pos="l" depth="1" NCoef="0" IVar="12" Cut="7.4592538177967072e-02" cType="1" res="2.5242504477500916e-01" rms="3.6332628130912781e-01" purity="8.4150683879852295e-01" nType="0">
          <Node pos="l" depth="2" NCoef="0" IVar="-1" Cut="0.0000000000000000e+00" cType="1" res="5.6124173104763031e-02" rms="3.2690200209617615e-01" purity="8.7780004739761353e-01" nType="-99"/>
          <Node pos="r" depth="2" NCoef="0" IVar="-1" Cut="0.0000000000000000e+00" cType="1" res="3.7702005356550217e-02" rms="4.2305329442024231e-01" purity="7.6540279388427734e-01" nType="-99"/>
        </Node>
        <Node pos="r" depth="1" NCoef="0" IVar="16" Cut="7.2520226240158081e-01" cType="1" res="-2.7277237176895142e-01" rms="3.0508521199226379e-01" purity="1.2082499265670776e-01" nType="0">
          <Node pos="l" depth="2" NCoef="0" IVar="-1" Cut="0.0000000000000000e+00" cType="1" res="-3.4207224380224943e-03" rms="4.9864086508750916e-01" purity="4.6315863728523254e-01" nType="-99"/>
          <Node pos="r" depth="2" NCoef="0" IVar="-1" Cut="0.0000000000000000e+00" cType="1" res="-7.4051864445209503e-02" rms="2.0078445971012115e-01" purity="4.4159159064292908e-02" nType="-99"/>
        </Node>
      </Node>
    </BinaryTree>
    <BinaryTree type="DecisionTree" boostWeight="1.0000000000000000e+00" itree="4">
      <Node pos="s" depth="0" NCoef="0" IVar="16" Cut="4.7572544217109680e-01" cType="1" res="4.2256764136254787e-03" rms="4.1047754883766174e-01" purity="5.0072062015533447e-01" nType="0">
        <Node pos="l" depth="1" NCoef="0" IVar="19" Cut="-2.3133370876312256e+00" cType="1" res="2.2681277990341187e-01" rms="3.6445671319961548e-01" purity="8.3990734815597534e-01" nType="0">
          <Node pos="l" depth="2" NCoef="0" IVar="-1" Cut="0.0000000000000000e+00" cType="1" res="5.0452079623937607e-02" rms="3.4194648265838623e-01" purity="8.6274737119674683e-01" nType="-99"/>
          <Node pos="r" depth="2" NCoef="0" IVar="-1" Cut="0.0000000000000000e+00" cType="1" res="3.0195530503988266e-02" rms="4.2567527294158936e-01" purity="7.5893551111221313e-01" nType="-99"/>
        </Node>
        <Node pos="r" depth="1" NCoef="0" IVar="16" Cut="7.0040458440780640e-01" cType="1" res="-2.4379119277000427e-01" rms="3.0250889062881470e-01" purity="1.2278299033641815e-01" nType="0">
          <Node pos="l" depth="2" NCoef="0" IVar="-1" Cut="0.0000000000000000e+00" cType="1" res="4.1496037738397717e-04" rms="4.9962282180786133e-01" purity="4.8058265447616577e-01" nType="-99"/>
          <Node pos="r" depth="2" NCoef="0" IVar="-1" Cut="0.0000000000000000e+00" cType="1" res="-6.8667024374008179e-02" rms="2.0970444381237030e-01" purity="4.9154128879308701e-02" nType="-99"/>
        </Node>
      </Node>
    </BinaryTree>
    <BinaryTree type="DecisionTree" boostWeight="1.0000000000000000e+00" itree="5">
      <Node pos="s" depth="0" NCoef="0" IVar="16" Cut="4.7572544217109680e-01" cType="1" res="6.2864264473319054e-03" rms="3.9505687355995178e-01" purity="5.0200551748275757e-01" nType="0">
        <Node pos="l" depth="1" NCoef="0" IVar="12" Cut="6.2160450965166092e-02" cType="1" res="2.0987561345100403e-01" rms="3.5959681868553162e-01" purity="8.4443217515945435e-01" nType="0">
          <Node pos="l" depth="2" NCoef="0" IVar="-1" Cut="0.0000000000000000e+00" cType="1" res="5.2095424383878708e-02" rms="3.0557695031166077e-01" purity="8.9539462327957153e-01" nType="-99"/>
          <Node pos="r" depth="2" NCoef="0" IVar="-1" Cut="0.0000000000000000e+00" cType="1" res="3.2276883721351624e-02" rms="4.1563108563423157e-01" purity="7.7595901489257812e-01" nType="-99"/>
        </Node>
        <Node pos="r" depth="1" NCoef="0" IVar="16" Cut="8.2495117187500000e-01" cType="1" res="-2.1968364715576172e-01" rms="2.9783260822296143e-01" purity="1.2193538248538971e-01" nType="0">
          <Node pos="l" depth="2" NCoef="0" IVar="-1" Cut="0.0000000000000000e+00" cType="1" res="-1.2458345852792263e-02" rms="4.7193506360054016e-01" purity="3.7405177950859070e-01" nType="-99"/>
          <Node pos="r" depth="2" NCoef="0" IVar="-1" Cut="0.0000000000000000e+00" cType="1" res="-7.0322945713996887e-02" rms="1.4502705633640289e-01" purity="2.1494874730706215e-02" nType="-99"/>
        </Node>
      </Node>
    </BinaryTree>
    <BinaryTree type="DecisionTree" boostWeight="1.0000000000000000e+00" itree="6">
      <Node pos="s" depth="0" NCoef="0" IVar="16" Cut="4.7572544217109680e-01" cType="1" res="3.8503757677972317e-03" rms="3.8306698203086853e-01" purity="4.9957072734832764e-01" nType="0">
        <Node pos="l" depth="1" NCoef="0" IVar="13" Cut="4.0889170020818710e-02" cType="1" res="1.8624010682106018e-01" rms="3.6257070302963257e-01" purity="8.4077405929565430e-01" nType="0">
          <Node pos="l" depth="2" NCoef="0" IVar="-1" Cut="0.0000000000000000e+00" cType="1" res="4.6206101775169373e-02" rms="3.2339099049568176e-01" purity="8.8054895401000977e-01" nType="-99"/>
          <Node pos="r" depth="2" NCoef="0" IVar="-1" Cut="0.0000000000000000e+00" cType="1" res="2.5429727509617805e-02" rms="4.3152195215225220e-01" purity="7.5100106000900269e-01" nType="-99"/>
        </Node>
        <Node pos="r" depth="1" NCoef="0" IVar="16" Cut="7.0026504993438721e-01" cType="1" res="-1.9901691377162933e-01" rms="2.9254558682441711e-01" purity="1.2005922943353653e-01" nType="0">
          <Node pos="l" depth="2" NCoef="0" IVar="-1" Cut="0.0000000000000000e+00" cType="1" res="-9.3856389867141843e-04" rms="4.9896380305290222e-01" purity="4.6782669425010681e-01" nType="-99"/>
          <Node pos="r" depth="2" NCoef="0" IVar="-1" Cut="0.0000000000000000e+00" cType="1" res="-6.1555072665214539e-02" rms="2.0587903261184692e-01" purity="4.8167154192924500e-02" nType="-99"/>
        </Node>
      </Node>
    </BinaryTree>
    <BinaryTree type="DecisionTree" boostWeight="1.0000000000000000e+00" itree="7">
      <Node pos="s" depth="0" NCoef="0" IVar="16" Cut="4.7572544217109680e-01" cType="1" res="5.2372417412698269e-03" rms="3.7338116765022278e-01" purity="5.0084030628204346e-01" nType="0">
        <Node pos="l" depth="1" NCoef="0" IVar="12" Cut="6.5949246287345886e-02" cType="1" res="1.6786469519138336e-01" rms="3.6309784650802612e-01" purity="8.3993166685104370e-01" nType="0">
          <Node pos="l" depth="2" NCoef="0" IVar="-1" Cut="0.0000000000000000e+00" cType="1" res="4.4357422739267349e-02" rms="3.1611782312393188e-01" purity="8.8681566715240479e-01" nType="-99"/>
          <Node pos="r" depth="2" NCoef="0" IVar="-1" Cut="0.0000000000000000e+00" cType="1" res="2.5425024330615997e-02" rms="4.2131263017654419e-01" purity="7.6721817255020142e-01" nType="-99"/>
        </Node>
        <Node pos="r" depth="1" NCoef="0" IVar="16" Cut="8.0001395940780640e-01" cType="1" res="-1.7655400931835175e-01" rms="2.9200527071952820e-01" purity="1.2179086357355118e-01" nType="0">
          <Node pos="l" depth="2" NCoef="0" IVar="-1" Cut="0.0000000000000000e+00" cType="1" res="-6.2668975442647934e-03" rms="4.8114293813705444e-01" purity="4.0114316344261169e-01" nType="-99"/>
          <Node pos="r" depth="2" NCoef="0" IVar="-1" Cut="0.0000000000000000e+00" cType="1" res="-6.3035324215888977e-02" rms="1.5950639545917511e-01" purity="2.6309961453080177e-02" nType="-99"/>
        </Node>
      </Node>
    </BinaryTree>
    <BinaryTree type="DecisionTree" boostWeight="1.0000000000000000e+00" itree="8">
      <Node pos="s" depth="0" NCoef="0" IVar="16" Cut="4.7572544217109680e-01" cType="1" res="6.0274344868957996e-03" rms="3.6554726958274841e-01" purity="5.0231987237930298e-01" nType="0">
        <Node pos="l" depth="1" NCoef="0" IVar="22" Cut="-9.0376853942871094e+01" cType="1" res="1.5176689624786377e-01" rms="3.6288747191429138e-01" purity="8.3973717689514160e-01" nType="0">
          <Node pos="l" depth="2" NCoef="0" IVar="-1" Cut="0.0000000000000000e+00" cType="1" res="3.8827572017908096e-02" rms="3.4038817882537842e-01" purity="8.6310875415802002e-01" nType="-99"/>
          <Node pos="r" depth="2" NCoef="0" IVar="-1" Cut="0.0000000000000000e+00" cType="1" res="1.8202438950538635e-02" rms="4.2332267761230469e-01" purity="7.6014822721481323e-01" nType="-99"/>
        </Node>
        <Node pos="r" depth="1" NCoef="0" IVar="16" Cut="8.4988838434219360e-01" cType="1" res="-1.5746331214904785e-01" rms="2.9196235537528992e-01" purity="1.2380455434322357e-01" nType="0">
          <Node pos="l" depth="2" NCoef="0" IVar="-1" Cut="0.0000000000000000e+00" cType="1" res="-1.0057668201625347e-02" rms="4.5564907789230347e-01" purity="3.4419384598731995e-01" nType="-99"/>
          <Node pos="r" depth="2" NCoef="0" IVar="-1" Cut="0.0000000000000000e+00" cType="1" res="-6.2964335083961487e-02" rms="1.3185589015483856e-01" purity="1.7699236050248146e-02" nType="-99"/>
        </Node>
      </Node>
    </BinaryTree>
    <BinaryTree type="DecisionTree" boostWeight="1.0000000000000000e+00" itree="9">
      <Node pos="s" depth="0" NCoef="0" IVar="16" Cut="4.7572544217109680e-01" cType="1" res="6.1179352924227715e-03" rms="3.5553225874900818e-01" purity="5.0150710344314575e-01" nType="0">
        <Node pos="l" depth="1" NCoef="0" IVar="13" Cut="5.6580543518066406e-02" cType="1" res="1.4154523611068726e-01" rms="3.5891517996788025e-01" purity="8.4397119283676147e-01" nType="0">
          <Node pos="l" depth="2" NCoef="0" IVar="-1" Cut="0.0000000000000000e+00" cType="1" res="3.6295656114816666e-02" rms="3.3957934379577637e-01" purity="8.6470830440521240e-01" nType="-99"/>
          <Node pos="r" depth="2" NCoef="0" IVar="-1" Cut="0.0000000000000000e+00" cType="1" res="1.2754276394844055e-02" rms="4.4691842794418335e-01" purity="7.2266203165054321e-01" nType="-99"/>
        </Node>
        <Node pos="r" depth="1" NCoef="0" IVar="16" Cut="6.5039062500000000e-01" cType="1" res="-1.4536984264850616e-01" rms="2.8325876593589783e-01" purity="1.1842980980873108e-01" nType="0">
          <Node pos="l" depth="2" NCoef="0" IVar="-1" Cut="0.0000000000000000e+00" cType="1" res="7.7765746973454952e-03" rms="4.9999263882637024e-01" purity="5.0271224975585938e-01" nType="-99"/>
          <Node pos="r" depth="2" NCoef="0" IVar="-1" Cut="0.0000000000000000e+00" cType="1" res="-5.1853992044925690e-02" rms="2.2001889348030090e-01" purity="5.9867180883884430e-02" nType="-99"/>
        </Node>
      </Node>
    </BinaryTree>
    <BinaryTree type="DecisionTree" boostWeight="1.0000000000000000e+00" itree="10">
      <Node pos="s" depth="0" NCoef="0" IVar="16" Cut="4.7572544217109680e-01" cType="1" res="6.2254746444523335e-03" rms="3.4963336586952209e-01" purity="5.0087082386016846e-01" nType="0">
        <Node pos="l" depth="1" NCoef="0" IVar="29" Cut="-9.6302871704101562e+01" cType="1" res="1.2871868908405304e-01" rms="3.5784161090850830e-01" purity="8.4482401609420776e-01" nType="0">
          <Node pos="l" depth="2" NCoef="0" IVar="-1" Cut="0.0000000000000000e+00" cType="1" res="3.5302992910146713e-02" rms="3.3487474918365479e-01" purity="8.6840254068374634e-01" nType="-99"/>
          <Node pos="r" depth="2" NCoef="0" IVar="-1" Cut="0.0000000000000000e+00" cType="1" res="1.4311815612018108e-02" rms="4.2240443825721741e-01" purity="7.6163643598556519e-01" nType="-99"/>
        </Node>
        <Node pos="r" depth="1" NCoef="0" IVar="16" Cut="8.0001395940780640e-01" cType="1" res="-1.2961363792419434e-01" rms="2.8409859538078308e-01" purity="1.1944329738616943e-01" nType="0">
          <Node pos="l" depth="2" NCoef="0" IVar="-1" Cut="0.0000000000000000e+00" cType="1" res="-4.0813027881085873e-03" rms="4.7785392403602600e-01" purity="3.9494749903678894e-01" nType="-99"/>
          <Node pos="r" depth="2" NCoef="0" IVar="-1" Cut="0.0000000000000000e+00" cType="1" res="-5.6270930916070938e-02" rms="1.5917775034904480e-01" purity="2.6376979425549507e-02" nType="-99"/>
        </Node>
      </Node>
    </BinaryTree>
    <BinaryTree type="DecisionTree" boostWeight="1.0000000000000000e+00" itree="11">
      <Node pos="s" depth="0" NCoef="0" IVar="16" Cut="4.7572544217109680e-01" cType="1" res="7.2158323600888252e-03" rms="3.4603503346443176e-01" purity="5.0111913681030273e-01" nType="0">
        <Node pos="l" depth="1" NCoef="0" IVar="13" Cut="5.7244837284088135e-02" cType="1" res="1.1499065160751343e-01" rms="3.5932937264442444e-01" purity="8.4299129247665405e-01" nType="0">
          <Node pos="l" depth="2" NCoef="0" IVar="-1" Cut="0.0000000000000000e+00" cType="1" res="3.1986072659492493e-02" rms="3.3934274315834045e-01" purity="8.6489129066467285e-01" nType="-99"/>
          <Node pos="r" depth="2" NCoef="0" IVar="-1" Cut="0.0000000000000000e+00" cType="1" res="6.3801575452089310e-03" rms="4.5226982235908508e-01" purity="7.1096414327621460e-01" nType="-99"/>
        </Node>
        <Node pos="r" depth="1" NCoef="0" IVar="16" Cut="8.4988838434219360e-01" cType="1" res="-1.1128646135330200e-01" rms="2.8742852807044983e-01" purity="1.2521846592426300e-01" nType="0">
          <Node pos="l" depth="2" NCoef="0" IVar="-1" Cut="0.0000000000000000e+00" cType="1" res="-3.0580919701606035e-03" rms="4.5751088857650757e-01" purity="3.5684910416603088e-01" nType="-99"/>
          <Node pos="r" depth="2" NCoef="0" IVar="-1" Cut="0.0000000000000000e+00" cType="1" res="-5.7336948812007904e-02" rms="1.3086490333080292e-01" purity="1.7429407685995102e-02" nType="-99"/>
        </Node>
      </Node>
    </BinaryTree>
    <BinaryTree type="DecisionTree" boostWeight="1.0000000000000000e+00" itree="12">
      <Node pos="s" depth="0" NCoef="0" IVar="16" Cut="4.7572544217109680e-01" cType="1" res="5.3003234788775444e-03" rms="3.4045407176017761e-01" purity="4.9994590878486633e-01" nType="0">
        <Node pos="l" depth="1" NCoef="0" IVar="12" Cut="3.9569549262523651e-02" cType="1" res="1.0437809675931931e-01" rms="3.5873085260391235e-01" purity="8.4349113702774048e-01" nType="0">
          <Node pos="l" depth="2" NCoef="0" IVar="-1" Cut="0.0000000000000000e+00" cType="1" res="3.9561472833156586e-02" rms="2.8242239356040955e-01" purity="9.1214138269424438e-01" nType="-99"/>
          <Node pos="r" depth="2" NCoef="0" IVar="-1" Cut="0.0000000000000000e+00" cType="1" res="2.0329719409346581e-02" rms="3.8736459612846375e-01" purity="8.1148469448089600e-01" nType="-99"/>
        </Node>
        <Node pos="r" depth="1" NCoef="0" IVar="16" Cut="6.5071612596511841e-01" cType="1" res="-1.0451661795377731e-01" rms="2.8072196245193481e-01" purity="1.1916340887546539e-01" nType="0">
          <Node pos="l" depth="2" NCoef="0" IVar="-1" Cut="0.0000000000000000e+00" cType="1" res="8.4645645692944527e-03" rms="4.9994018673896790e-01" purity="5.0632894039154053e-01" nType="-99"/>
          <Node pos="r" depth="2" NCoef="0" IVar="-1" Cut="0.0000000000000000e+00" cType="1" res="-4.4438928365707397e-02" rms="2.2419278323650360e-01" purity="6.2730148434638977e-02" nType="-99"/>
        </Node>
      </Node>
    </BinaryTree>
    <BinaryTree type="DecisionTree" boostWeight="1.0000000000000000e+00" itree="13">
      <Node pos="s" depth="0" NCoef="0" IVar="16" Cut="4.7572544217109680e-01" cType="1" res="5.8202161453664303e-03" rms="3.3806803822517395e-01" purity="5.0110876560211182e-01" nType="0">
        <Node pos="l" depth="1" NCoef="0" IVar="12" Cut="3.9569549262523651e-02" cType="1" res="9.4519436359405518e-02" rms="3.5850217938423157e-01" purity="8.4335476160049438e-01" nType="0">
          <Node pos="l" depth="2" NCoef="0" IVar="-1" Cut="0.0000000000000000e+00" cType="1" res="3.8063704967498779e-02" rms="2.7870586514472961e-01" purity="9.1456526517868042e-01" nType="-99"/>
          <Node pos="r" depth="2" NCoef="0" IVar="-1" Cut="0.0000000000000000e+00" cType="1" res="1.8383918330073357e-02" rms="3.8883972167968750e-01" purity="8.0970311164855957e-01" nType="-99"/>
        </Node>
        <Node pos="r" depth="1" NCoef="0" IVar="16" Cut="8.7482559680938721e-01" cType="1" res="-9.2389829456806183e-02" rms="2.8314942121505737e-01" purity="1.2216535210609436e-01" nType="0">
          <Node pos="l" depth="2" NCoef="0" IVar="-1" Cut="0.0000000000000000e+00" cType="1" res="-4.8529654741287231e-03" rms="4.3689781427383423e-01" purity="3.1593197584152222e-01" nType="-99"/>
          <Node pos="r" depth="2" NCoef="0" IVar="-1" Cut="0.0000000000000000e+00" cType="1" res="-5.5817455053329468e-02" rms="1.1740691959857941e-01" purity="1.3979818671941757e-02" nType="-99"/>
        </Node>
      </Node>
    </BinaryTree>
    <BinaryTree type="DecisionTree" boostWeight="1.0000000000000000e+00" itree="14">
      <Node pos="s" depth="0" NCoef="0" IVar="16" Cut="4.7572544217109680e-01" cType="1" res="3.5508961882442236e-03" rms="3.3484983444213867e-01" purity="4.9778690934181213e-01" nType="0">
        <Node pos="l" depth="1" NCoef="0" IVar="12" Cut="9.2328943312168121e-02" cType="1" res="8.4571607410907745e-02" rms="3.5916164517402649e-01" purity="8.4231573343276978e-01" nType="0">
          <Node pos="l" depth="2" NCoef="0" IVar="-1" Cut="0.0000000000000000e+00" cType="1" res="2.7342738583683968e-02" rms="3.3346039056777954e-01" purity="8.6996197700500488e-01" nType="-99"/>
          <Node pos="r" depth="2" NCoef="0" IVar="-1" Cut="0.0000000000000000e+00" cType="1" res="5.9007820673286915e-03" rms="4.3558740615844727e-01" purity="7.4088180065155029e-01" nType="-99"/>
        </Node>
        <Node pos="r" depth="1" NCoef="0" IVar="16" Cut="8.2495117187500000e-01" cType="1" res="-8.5341870784759521e-02" rms="2.8019332885742188e-01" purity="1.1978333443403244e-01" nType="0">
          <Node pos="l" depth="2" NCoef="0" IVar="-1" Cut="0.0000000000000000e+00" cType="1" res="-2.0422709640115499e-03" rms="4.6882337331771851e-01" purity="3.7293502688407898e-01" nType="-99"/>
          <Node pos="r" depth="2" NCoef="0" IVar="-1" Cut="0.0000000000000000e+00" cType="1" res="-5.1499847322702408e-02" rms="1.4224129915237427e-01" purity="2.1006572991609573e-02" nType="-99"/>
        </Node>
      </Node>
    </BinaryTree>
    <BinaryTree type="DecisionTree" boostWeight="1.0000000000000000e+00" itree="15">
      <Node pos="s" depth="0" NCoef="0" IVar="16" Cut="4.7572544217109680e-01" cType="1" res="3.0988666694611311e-03" rms="3.3298099040985107e-01" purity="4.9794945120811462e-01" nType="0">
        <Node pos="l" depth="1" NCoef="0" IVar="29" Cut="-4.0878441929817200e-01" cType="1" res="7.4135772883892059e-02" rms="3.6119037866592407e-01" purity="8.3978164196014404e-01" nType="0">
          <Node pos="l" depth="2" NCoef="0" IVar="-1" Cut="0.0000000000000000e+00" cType="1" res="2.5237891823053360e-02" rms="3.3839845657348633e-01" purity="8.6404883861541748e-01" nType="-99"/>
          <Node pos="r" depth="2" NCoef="0" IVar="-1" Cut="0.0000000000000000e+00" cType="1" res="2.9465127736330032e-03" rms="4.2565163969993591e-01" purity="7.5491011142730713e-01" nType="-99"/>
        </Node>
        <Node pos="r" depth="1" NCoef="0" IVar="16" Cut="8.9976280927658081e-01" cType="1" res="-7.5473248958587646e-02" rms="2.7831983566284180e-01" purity="1.1985754221677780e-01" nType="0">
          <Node pos="l" depth="2" NCoef="0" IVar="-1" Cut="0.0000000000000000e+00" cType="1" res="-4.9346904270350933e-03" rms="4.1831678152084351e-01" purity="2.8570666909217834e-01" nType="-99"/>
          <Node pos="r" depth="2" NCoef="0" IVar="-1" Cut="0.0000000000000000e+00" cType="1" res="-5.5889341980218887e-02" rms="9.0801902115345001e-02" purity="8.3141103386878967e-03" nType="-99"/>
        </Node>
      </Node>
    </BinaryTree>
    <BinaryTree type="DecisionTree" boostWeight="1.0000000000000000e+00" itree="16">
      <Node pos="s" depth="0" NCoef="0" IVar="16" Cut="4.7572544217109680e-01" cType="1" res="3.2842999789863825e-03" rms="3.3153656125068665e-01" purity="4.9850767850875854e-01" nType="0">
        <Node pos="l" depth="1" NCoef="0" IVar="12" Cut="9.7726367413997650e-02" cType="1" res="6.8036831915378571e-02" rms="3.6004459857940674e-01" purity="8.4080225229263306e-01" nType="0">
          <Node pos="l" depth="2" NCoef="0" IVar="-1" Cut="0.0000000000000000e+00" cType="1" res="2.3622620850801468e-02" rms="3.3635050058364868e-01" purity="8.6696547269821167e-01" nType="-99"/>
          <Node pos="r" depth="2" NCoef="0" IVar="-1" Cut="0.0000000000000000e+00" cType="1" res="1.0365515481680632e-03" rms="4.4124874472618103e-01" purity="7.2965472936630249e-01" nType="-99"/>
        </Node>
        <Node pos="r" depth="1" NCoef="0" IVar="16" Cut="5.7557898759841919e-01" cType="1" res="-6.8066157400608063e-02" rms="2.8014448285102844e-01" purity="1.2133517861366272e-01" nType="0">
          <Node pos="l" depth="2" NCoef="0" IVar="-1" Cut="0.0000000000000000e+00" cType="1" res="1.5900127589702606e-02" rms="4.9821591377258301e-01" purity="5.4220080375671387e-01" nType="-99"/>
          <Node pos="r" depth="2" NCoef="0" IVar="-1" Cut="0.0000000000000000e+00" cType="1" res="-3.2550703734159470e-02" rms="2.5045946240425110e-01" purity="8.7047487497329712e-02" nType="-99"/>
        </Node>
      </Node>
    </BinaryTree>
    <BinaryTree type="DecisionTree" boostWeight="1.0000000000000000e+00" itree="17">
      <Node pos="s" depth="0" NCoef="0" IVar="16" Cut="4.7572544217109680e-01" cType="1" res="4.9840980209410191e-03" rms="3.2976102828979492e-01" purity="5.0227963924407959e-01" nType="0">
        <Node pos="l" depth="1" NCoef="0" IVar="14" Cut="3.4231469035148621e-01" cType="1" res="6.3686959445476532e-02" rms="3.5840514302253723e-01" purity="8.4306573867797852e-01" nType="0">
          <Node pos="l" depth="2" NCoef="0" IVar="-1" Cut="0.0000000000000000e+00" cType="1" res="3.3557768911123276e-03" rms="4.2637091875076294e-01" purity="7.5582331418991089e-01" nType="-99"/>
          <Node pos="r" depth="2" NCoef="0" IVar="-1" Cut="0.0000000000000000e+00" cType="1" res="2.2357959300279617e-02" rms="3.3679106831550598e-01" purity="8.6623805761337280e-01" nType="-99"/>
        </Node>
        <Node pos="r" depth="1" NCoef="0" IVar="9" Cut="4.8501974344253540e-01" cType="1" res="-6.0591608285903931e-02" rms="2.8030863404273987e-01" purity="1.2159483134746552e-01" nType="0">
          <Node pos="l" depth="2" NCoef="0" IVar="-1" Cut="0.0000000000000000e+00" cType="1" res="-2.8766585513949394e-02" rms="2.6540511846542358e-01" purity="1.0489886999130249e-01" nType="-99"/>
          <Node pos="r" depth="2" NCoef="0" IVar="-1" Cut="0.0000000000000000e+00" cType="1" res="3.3233385533094406e-02" rms="4.0665134787559509e-01" purity="3.6358466744422913e-01" nType="-99"/>
        </Node>
      </Node>
    </BinaryTree>
    <BinaryTree type="DecisionTree" boostWeight="1.0000000000000000e+00" itree="18">
      <Node pos="s" depth="0" NCoef="0" IVar="16" Cut="4.7572544217109680e-01" cType="1" res="1.3816597638651729e-03" rms="3.2917711138725281e-01" purity="4.9855896830558777e-01" nType="0">
        <Node pos="l" depth="1" NCoef="0" IVar="29" Cut="-4.0834262967109680e-01" cType="1" res="5.3229149430990219e-02" rms="3.6211872100830078e-01" purity="8.3848679065704346e-01" nType="0">
          <Node pos="l" depth="2" NCoef="0" IVar="-1" Cut="0.0000000000000000e+00" cType="1" res="2.0191384479403496e-02" rms="3.4102818369865417e-01" purity="8.6152654886245728e-01" nType="-99"/>
          <Node pos="r" depth="2" NCoef="0" IVar="-1" Cut="0.0000000000000000e+00" cType="1" res="-2.6047902065329254e-04" rms="4.2390051484107971e-01" purity="7.5718170404434204e-01" nType="-99"/>
        </Node>
        <Node pos="r" depth="1" NCoef="0" IVar="16" Cut="7.5013953447341919e-01" cType="1" res="-5.6469149887561798e-02" rms="2.7677118778228760e-01" purity="1.1927162110805511e-01" nType="0">
          <Node pos="l" depth="2" NCoef="0" IVar="-1" Cut="0.0000000000000000e+00" cType="1" res="5.6087756529450417e-03" rms="4.8807343840599060e-01" purity="4.3801426887512207e-01" nType="-99"/>
          <Node pos="r" depth="2" NCoef="0" IVar="-1" Cut="0.0000000000000000e+00" cType="1" res="-4.0956240147352219e-02" rms="1.7961266636848450e-01" purity="3.6294899880886078e-02" nType="-99"/>
        </Node>
      </Node>
    </BinaryTree>
    <BinaryTree type="DecisionTree" boostWeight="1.0000000000000000e+00" itree="19">
      <Node pos="s" depth="0" NCoef="0" IVar="16" Cut="4.7572544217109680e-01" cType="1" res="2.3938720114529133e-03" rms="3.2768407464027405e-01" purity="4.9772453308105469e-01" nType="0">
        <Node pos="l" depth="1" NCoef="0" IVar="13" Cut="4.5591287314891815e-02" cType="1" res="5.1094312220811844e-02" rms="3.6025285720825195e-01" purity="8.4073674678802490e-01" nType="0">
          <Node pos="l" depth="2" NCoef="0" IVar="-1" Cut="0.0000000000000000e+00" cType="1" res="2.0335387438535690e-02" rms="3.3094528317451477e-01" purity="8.7260729074478149e-01" nType="-99"/>
          <Node pos="r" depth="2" NCoef="0" IVar="-1" Cut="0.0000000000000000e+00" cType="1" res="2.0468451548367739e-03" rms="4.3146070837974548e-01" purity="7.4812763929367065e-01" nType="-99"/>
        </Node>
        <Node pos="r" depth="1" NCoef="0" IVar="8" Cut="4.4289323687553406e-01" cType="1" res="-5.1355931907892227e-02" rms="2.7774432301521301e-01" purity="1.1914814263582230e-01" nType="0">
          <Node pos="l" depth="2" NCoef="0" IVar="-1" Cut="0.0000000000000000e+00" cType="1" res="-2.6177514344453812e-02" rms="2.6508921384811401e-01" purity="1.0350443422794342e-01" nType="-99"/>
          <Node pos="r" depth="2" NCoef="0" IVar="-1" Cut="0.0000000000000000e+00" cType="1" res="3.3124756067991257e-02" rms="3.9462971687316895e-01" purity="3.5897520184516907e-01" nType="-99"/>
        </Node>
      </Node>
    </BinaryTree>
    <BinaryTree type="DecisionTree" boostWeight="1.0000000000000000e+00" itree="20">
      <Node pos="s" depth="0" NCoef="0" IVar="16" Cut="4.7526040673255920e-01" cType="1" res="2.0585053134709597e-03" rms="3.2500478625297546e-01" purity="4.9681401252746582e-01" nType="0">
        <Node pos="l" depth="1" NCoef="0" IVar="13" Cut="5.7244837284088135e-02" cType="1" res="4.7084361314773560e-02" rms="3.5858047008514404e-01" purity="8.4189474582672119e-01" nType="0">
          <Node pos="l" depth="2" NCoef="0" IVar="-1" Cut="0.0000000000000000e+00" cType="1" res="1.7874190583825111e-02" rms="3.3918842673301697e-01" purity="8.6405730247497559e-01" nType="-99"/>
          <Node pos="r" depth="2" NCoef="0" IVar="-1" Cut="0.0000000000000000e+00" cType="1" res="-4.1958871297538280e-03" rms="4.5187392830848694e-01" purity="7.1018731594085693e-01" nType="-99"/>
        </Node>
        <Node pos="r" depth="1" NCoef="0" IVar="16" Cut="8.9927452802658081e-01" cType="1" res="-4.7440059483051300e-02" rms="2.7516809105873108e-01" purity="1.1745423078536987e-01" nType="0">
          <Node pos="l" depth="2" NCoef="0" IVar="-1" Cut="0.0000000000000000e+00" cType="1" res="-6.1152071850756329e-08" rms="4.1288259625434875e-01" purity="2.7716985344886780e-01" nType="-99"/>
          <Node pos="r" depth="2" NCoef="0" IVar="-1" Cut="0.0000000000000000e+00" cType="1" res="-5.2033077925443649e-02" rms="9.3218371272087097e-02" purity="8.8097918778657913e-03" nType="-99"/>
        </Node>
      </Node>
    </BinaryTree>
    <BinaryTree type="DecisionTree" boostWeight="1.0000000000000000e+00" itree="21">
      <Node pos="s" depth="0" NCoef="0" IVar="16" Cut="4.7572544217109680e-01" cType="1" res="4.4598937965929508e-03" rms="3.2685059309005737e-01" purity="5.0089591741561890e-01" nType="0">
        <Node pos="l" depth="1" NCoef="0" IVar="12" Cut="4.8929829150438309e-02" cType="1" res="4.0871225297451019e-02" rms="3.6023986339569092e-01" purity="8.4045034646987915e-01" nType="0">
          <Node pos="l" depth="2" NCoef="0" IVar="-1" Cut="0.0000000000000000e+00" cType="1" res="2.3554351180791855e-02" rms="2.9867571592330933e-01" purity="8.9999788999557495e-01" nType="-99"/>
          <Node pos="r" depth="2" NCoef="0" IVar="-1" Cut="0.0000000000000000e+00" cType="1" res="5.2950573153793812e-03" rms="4.0015354752540588e-01" purity="7.9427713155746460e-01" nType="-99"/>
        </Node>
        <Node pos="r" depth="1" NCoef="0" IVar="16" Cut="8.2495117187500000e-01" cType="1" res="-3.6097448319196701e-02" rms="2.7956384420394897e-01" purity="1.2267781794071198e-01" nType="0">
          <Node pos="l" depth="2" NCoef="0" IVar="-1" Cut="0.0000000000000000e+00" cType="1" res="7.5408131815493107e-03" rms="4.6651515364646912e-01" purity="3.8081112504005432e-01" nType="-99"/>
          <Node pos="r" depth="2" NCoef="0" IVar="-1" Cut="0.0000000000000000e+00" cType="1" res="-4.2227238416671753e-02" rms="1.4712648093700409e-01" purity="2.2740885615348816e-02" nType="-99"/>
        </Node>
      </Node>
    </BinaryTree>
    <BinaryTree type="DecisionTree" boostWeight="1.0000000000000000e+00" itree="22">
      <Node pos="s" depth="0" NCoef="0" IVar="29" Cut="-3.8404482603073120e-01" cType="1" res="2.8839989099651575e-03" rms="3.2546895742416382e-01" purity="4.9941605329513550e-01" nType="0">
        <Node pos="l" depth="1" NCoef="0" IVar="12" Cut="3.6697369068861008e-02" cType="1" res="3.3120963722467422e-02" rms="3.3927738666534424e-01" purity="6.4513927698135376e-01" nType="0">
          <Node pos="l" depth="2" NCoef="0" IVar="-1" Cut="0.0000000000000000e+00" cType="1" res="2.7794780209660530e-02" rms="2.8458809852600098e-01" purity="7.7455079555511475e-01" nType="-99"/>
          <Node pos="r" depth="2" NCoef="0" IVar="-1" Cut="0.0000000000000000e+00" cType="1" res="5.8127185329794884e-03" rms="3.5499164462089539e-01" purity="6.0030162334442139e-01" nType="-99"/>
        </Node>
        <Node pos="r" depth="1" NCoef="0" IVar="40" Cut="3.7077888846397400e-02" cType="1" res="-4.3442107737064362e-02" rms="2.9718658328056335e-01" purity="2.7615317702293396e-01" nType="0">
          <Node pos="l" depth="2" NCoef="0" IVar="-1" Cut="0.0000000000000000e+00" cType="1" res="-1.6420333122368902e-04" rms="3.5197335481643677e-01" purity="4.8969346284866333e-01" nType="-99"/>
          <Node pos="r" depth="2" NCoef="0" IVar="-1" Cut="0.0000000000000000e+00" cType="1" res="-2.7454063296318054e-02" rms="2.7151778340339661e-01" purity="1.9437135756015778e-01" nType="-99"/>
        </Node>
      </Node>
    </BinaryTree>
    <BinaryTree type="DecisionTree" boostWeight="1.0000000000000000e+00" itree="23">
      <Node pos="s" depth="0" NCoef="0" IVar="16" Cut="4.7572544217109680e-01" cType="1" res="3.2889696303755045e-03" rms="3.2496753334999084e-01" purity="5.0116342306137085e-01" nType="0">
        <Node pos="l" depth="1" NCoef="0" IVar="13" Cut="5.2930522710084915e-02" cType="1" res="3.5719584673643112e-02" rms="3.5893771052360535e-01" purity="8.4080415964126587e-01" nType="0">
          <Node pos="l" depth="2" NCoef="0" IVar="-1" Cut="0.0000000000000000e+00" cType="1" res="1.5144051983952522e-02" rms="3.3636325597763062e-01" purity="8.6641085147857666e-01" nType="-99"/>
          <Node pos="r" depth="2" NCoef="0" IVar="-1" Cut="0.0000000000000000e+00" cType="1" res="-3.4171768929809332e-03" rms="4.4676294922828674e-01" purity="7.2054404020309448e-01" nType="-99"/>
        </Node>
        <Node pos="r" depth="1" NCoef="0" IVar="16" Cut="5.5064171552658081e-01" cType="1" res="-3.2820921391248703e-02" rms="2.7795821428298950e-01" purity="1.2299025803804398e-01" nType="0">
          <Node pos="l" depth="2" NCoef="0" IVar="-1" Cut="0.0000000000000000e+00" cType="1" res="2.5613363832235336e-02" rms="4.8758751153945923e-01" purity="5.8825802803039551e-01" nType="-99"/>
          <Node pos="r" depth="2" NCoef="0" IVar="-1" Cut="0.0000000000000000e+00" cType="1" res="-2.0814841613173485e-02" rms="2.5744628906250000e-01" purity="9.5815695822238922e-02" nType="-99"/>
        </Node>
      </Node>
    </BinaryTree>
    <BinaryTree type="DecisionTree" boostWeight="1.0000000000000000e+00" itree="24">
      <Node pos="s" depth="0" NCoef="0" IVar="29" Cut="-3.8139414787292480e-01" cType="1" res="1.1520381085574627e-03" rms="3.2553112506866455e-01" purity="4.9865138530731201e-01" nType="0">
        <Node pos="l" depth="1" NCoef="0" IVar="8" Cut="5.5147671699523926e-01" cType="1" res="2.9657060280442238e-02" rms="3.3886137604713440e-01" purity="6.4630895853042603e-01" nType="0">
          <Node pos="l" depth="2" NCoef="0" IVar="-1" Cut="0.0000000000000000e+00" cType="1" res="8.4682116284966469e-03" rms="3.3960086107254028e-01" purity="6.3676249980926514e-01" nType="-99"/>
          <Node pos="r" depth="2" NCoef="0" IVar="-1" Cut="0.0000000000000000e+00" cType="1" res="4.3725736439228058e-02" rms="3.0582728981971741e-01" purity="8.4091567993164062e-01" nType="-99"/>
        </Node>
        <Node pos="r" depth="1" NCoef="0" IVar="22" Cut="3.8787539005279541e+00" cType="1" res="-4.2492546141147614e-02" rms="2.9876613616943359e-01" purity="2.7257013320922852e-01" nType="0">
          <Node pos="l" depth="2" NCoef="0" IVar="-1" Cut="0.0000000000000000e+00" cType="1" res="-2.8552059084177017e-02" rms="2.6010671257972717e-01" purity="1.7920944094657898e-01" nType="-99"/>
          <Node pos="r" depth="2" NCoef="0" IVar="-1" Cut="0.0000000000000000e+00" cType="1" res="-5.0109042786061764e-03" rms="3.5557648539543152e-01" purity="4.3851929903030396e-01" nType="-99"/>
        </Node>
      </Node>
    </BinaryTree>
    <BinaryTree type="DecisionTree" boostWeight="1.0000000000000000e+00" itree="25">
      <Node pos="s" depth="0" NCoef="0" IVar="29" Cut="-3.8404482603073120e-01" cType="1" res="1.6619027592241764e-03" rms="3.2351630926132202e-01" purity="4.9738517403602600e-01" nType="0">
        <Node pos="l" depth="1" NCoef="0" IVar="9" Cut="3.6470660567283630e-01" cType="1" res="2.5931382551789284e-02" rms="3.3875262737274170e-01" purity="6.4345973730087280e-01" nType="0">
          <Node pos="l" depth="2" NCoef="0" IVar="-1" Cut="0.0000000000000000e+00" cType="1" res="4.7396374866366386e-03" rms="3.3988100290298462e-01" purity="6.1626899242401123e-01" nType="-99"/>
          <Node pos="r" depth="2" NCoef="0" IVar="-1" Cut="0.0000000000000000e+00" cType="1" res="2.2179666906595230e-02" rms="3.3223924040794373e-01" purity="7.2905081510543823e-01" nType="-99"/>
        </Node>
        <Node pos="r" depth="1" NCoef="0" IVar="17" Cut="1.4429199695587158e+00" cType="1" res="-3.5936038941144943e-02" rms="2.9445645213127136e-01" purity="2.7108851075172424e-01" nType="0">
          <Node pos="l" depth="2" NCoef="0" IVar="-1" Cut="0.0000000000000000e+00" cType="1" res="-2.1439693868160248e-02" rms="2.7832481265068054e-01" purity="2.1718856692314148e-01" nType="-99"/>
          <Node pos="r" depth="2" NCoef="0" IVar="-1" Cut="0.0000000000000000e+00" cType="1" res="6.2449108809232712e-03" rms="3.6617866158485413e-01" purity="5.6892615556716919e-01" nType="-99"/>
        </Node>
      </Node>
    </BinaryTree>
    <BinaryTree type="DecisionTree" boostWeight="1.0000000000000000e+00" itree="26">
      <Node pos="s" depth="0" NCoef="0" IVar="16" Cut="4.7572544217109680e-01" cType="1" res="4.7371685504913330e-03" rms="3.2117033004760742e-01" purity="5.0242382287979126e-01" nType="0">
        <Node pos="l" depth="1" NCoef="0" IVar="13" Cut="6.4663477241992950e-02" cType="1" res="3.4122217446565628e-02" rms="3.5522794723510742e-01" purity="8.4486991167068481e-01" nType="0">
          <Node pos="l" depth="2" NCoef="0" IVar="-1" Cut="0.0000000000000000e+00" cType="1" res="1.2986429035663605e-02" rms="3.4281429648399353e-01" purity="8.5944586992263794e-01" nType="-99"/>
          <Node pos="r" depth="2" NCoef="0" IVar="-1" Cut="0.0000000000000000e+00" cType="1" res="-3.7358365952968597e-03" rms="4.5185157656669617e-01" purity="7.0916008949279785e-01" nType="-99"/>
        </Node>
        <Node pos="r" depth="1" NCoef="0" IVar="16" Cut="8.2495117187500000e-01" cType="1" res="-2.8012568131089211e-02" rms="2.7466565370559692e-01" purity="1.2076647579669952e-01" nType="0">
          <Node pos="l" depth="2" NCoef="0" IVar="-1" Cut="0.0000000000000000e+00" cType="1" res="7.1512679569423199e-03" rms="4.6229618787765503e-01" purity="3.7805056571960449e-01" nType="-99"/>
          <Node pos="r" depth="2" NCoef="0" IVar="-1" Cut="0.0000000000000000e+00" cType="1" res="-4.0126539766788483e-02" rms="1.4142026007175446e-01" purity="2.1014878526329994e-02" nType="-99"/>
        </Node>
      </Node>
    </BinaryTree>
    <BinaryTree type="DecisionTree" boostWeight="1.0000000000000000e+00" itree="27">
      <Node pos="s" depth="0" NCoef="0" IVar="16" Cut="4.7572544217109680e-01" cType="1" res="9.2314690118655562e-04" rms="3.2280239462852478e-01" purity="4.9738675355911255e-01" nType="0">
        <Node pos="l" depth="1" NCoef="0" IVar="14" Cut="3.4911018610000610e-01" cType="1" res="2.5857718661427498e-02" rms="3.5930427908897400e-01" purity="8.3980733156204224e-01" nType="0">
          <Node pos="l" depth="2" NCoef="0" IVar="-1" Cut="0.0000000000000000e+00" cType="1" res="-3.8212377112358809e-03" rms="4.2838311195373535e-01" purity="7.4961501359939575e-01" nType="-99"/>
          <Node pos="r" depth="2" NCoef="0" IVar="-1" Cut="0.0000000000000000e+00" cType="1" res="1.2975691817700863e-02" rms="3.3475428819656372e-01" purity="8.6701691150665283e-01" nType="-99"/>
        </Node>
        <Node pos="r" depth="1" NCoef="0" IVar="16" Cut="8.9976280927658081e-01" cType="1" res="-2.6498373597860336e-02" rms="2.7456185221672058e-01" purity="1.2081350386142731e-01" nType="0">
          <Node pos="l" depth="2" NCoef="0" IVar="-1" Cut="0.0000000000000000e+00" cType="1" res="3.6125867627561092e-03" rms="4.1345426440238953e-01" purity="2.8608104586601257e-01" nType="-99"/>
          <Node pos="r" depth="2" NCoef="0" IVar="-1" Cut="0.0000000000000000e+00" cType="1" res="-4.7799672931432724e-02" rms="9.5736518502235413e-02" purity="9.2634977772831917e-03" nType="-99"/>
        </Node>
      </Node>
    </BinaryTree>
    <BinaryTree type="DecisionTree" boostWeight="1.0000000000000000e+00" itree="28">
      <Node pos="s" depth="0" NCoef="0" IVar="16" Cut="4.7572544217109680e-01" cType="1" res="2.4045272730290890e-03" rms="3.2009425759315491e-01" purity="4.9641212821006775e-01" nType="0">
        <Node pos="l" depth="1" NCoef="0" IVar="13" Cut="3.2711334526538849e-02" cType="1" res="2.6243517175316811e-02" rms="3.5665532946586609e-01" purity="8.4273290634155273e-01" nType="0">
          <Node pos="l" depth="2" NCoef="0" IVar="-1" Cut="0.0000000000000000e+00" cType="1" res="1.5998311340808868e-02" rms="3.1016364693641663e-01" purity="8.8993316888809204e-01" nType="-99"/>
          <Node pos="r" depth="2" NCoef="0" IVar="-1" Cut="0.0000000000000000e+00" cType="1" res="1.2593126157298684e-03" rms="4.0791687369346619e-01" purity="7.8177636861801147e-01" nType="-99"/>
        </Node>
        <Node pos="r" depth="1" NCoef="0" IVar="16" Cut="8.4988838434219360e-01" cType="1" res="-2.3590009659528732e-02" rms="2.7236920595169067e-01" purity="1.1877654492855072e-01" nType="0">
          <Node pos="l" depth="2" NCoef="0" IVar="-1" Cut="0.0000000000000000e+00" cType="1" res="5.0727576017379761e-03" rms="4.4805425405502319e-01" purity="3.4607762098312378e-01" nType="-99"/>
          <Node pos="r" depth="2" NCoef="0" IVar="-1" Cut="0.0000000000000000e+00" cType="1" res="-4.0476046502590179e-02" rms="1.2681382894515991e-01" purity="1.6681427136063576e-02" nType="-99"/>
        </Node>
      </Node>
    </BinaryTree>
    <BinaryTree type="DecisionTree" boostWeight="1.0000000000000000e+00" itree="29">
      <Node pos="s" depth="0" NCoef="0" IVar="16" Cut="4.7572544217109680e-01" cType="1" res="1.5635546296834946e-03" rms="3.2243487238883972e-01" purity="4.9712288379669189e-01" nType="0">
        <Node pos="l" depth="1" NCoef="0" IVar="0" Cut="5.6880950927734375e+01" cType="1" res="2.2819023579359055e-02" rms="3.5845184326171875e-01" purity="8.4121686220169067e-01" nType="0">
          <Node pos="l" depth="2" NCoef="0" IVar="-1" Cut="0.0000000000000000e+00" cType="1" res="-2.0406704861670732e-03" rms="3.9758577942848206e-01" purity="7.9307007789611816e-01" nType="-99"/>
          <Node pos="r" depth="2" NCoef="0" IVar="-1" Cut="0.0000000000000000e+00" cType="1" res="1.1215296573936939e-02" rms="3.4311392903327942e-01" purity="8.5806125402450562e-01" nType="-99"/>
        </Node>
        <Node pos="r" depth="1" NCoef="0" IVar="9" Cut="4.8718258738517761e-01" cType="1" res="-2.1557563915848732e-02" rms="2.7615618705749512e-01" purity="1.2282679229974747e-01" nType="0">
          <Node pos="l" depth="2" NCoef="0" IVar="-1" Cut="0.0000000000000000e+00" cType="1" res="-1.5558121725916862e-02" rms="2.6443690061569214e-01" purity="1.0638030618429184e-01" nType="-99"/>
          <Node pos="r" depth="2" NCoef="0" IVar="-1" Cut="0.0000000000000000e+00" cType="1" res="3.0432237312197685e-02" rms="3.9319324493408203e-01" purity="3.6443307995796204e-01" nType="-99"/>
        </Node>
      </Node>
    </BinaryTree>
    <BinaryTree type="DecisionTree" boostWeight="1.0000000000000000e+00" itree="30">
      <Node pos="s" depth="0" NCoef="0" IVar="29" Cut="-9.6302505493164062e+01" cType="1" res="3.1658159568905830e-03" rms="3.2177257537841797e-01" purity="5.0184500217437744e-01" nType="0">
        <Node pos="l" depth="1" NCoef="0" IVar="9" Cut="5.5147671699523926e-01" cType="1" res="2.1576790139079094e-02" rms="3.3695578575134277e-01" purity="6.4942246675491333e-01" nType="0">
          <Node pos="l" depth="2" NCoef="0" IVar="-1" Cut="0.0000000000000000e+00" cType="1" res="6.0463007539510727e-03" rms="3.3758625388145447e-01" purity="6.3689875602722168e-01" nType="-99"/>
          <Node pos="r" depth="2" NCoef="0" IVar="-1" Cut="0.0000000000000000e+00" cType="1" res="3.1416356563568115e-02" rms="3.2138410210609436e-01" purity="8.1279277801513672e-01" nType="-99"/>
        </Node>
        <Node pos="r" depth="1" NCoef="0" IVar="22" Cut="3.9610579013824463e+00" cType="1" res="-2.5356082245707512e-02" rms="2.9445663094520569e-01" purity="2.7322107553482056e-01" nType="0">
          <Node pos="l" depth="2" NCoef="0" IVar="-1" Cut="0.0000000000000000e+00" cType="1" res="-2.1969314664602280e-02" rms="2.6059433817863464e-01" purity="1.7989195883274078e-01" nType="-99"/>
          <Node pos="r" depth="2" NCoef="0" IVar="-1" Cut="0.0000000000000000e+00" cType="1" res="1.6044770018197596e-04" rms="3.4623616933822632e-01" purity="4.4307005405426025e-01" nType="-99"/>
        </Node>
      </Node>
    </BinaryTree>
    <BinaryTree type="DecisionTree" boostWeight="1.0000000000000000e+00" itree="31">
      <Node pos="s" depth="0" NCoef="0" IVar="16" Cut="4.7572544217109680e-01" cType="1" res="8.6511741392314434e-04" rms="3.1941539049148560e-01" purity="4.9851897358894348e-01" nType="0">
        <Node pos="l" depth="1" NCoef="0" IVar="14" Cut="3.0362731218338013e-01" cType="1" res="2.0495668053627014e-02" rms="3.5686165094375610e-01" purity="8.4232610464096069e-01" nType="0">
          <Node pos="l" depth="2" NCoef="0" IVar="-1" Cut="0.0000000000000000e+00" cType="1" res="-1.0651421733200550e-02" rms="4.5208215713500977e-01" purity="7.0733904838562012e-01" nType="-99"/>
          <Node pos="r" depth="2" NCoef="0" IVar="-1" Cut="0.0000000000000000e+00" cType="1" res="9.0870195999741554e-03" rms="3.4579527378082275e-01" purity="8.5526520013809204e-01" nType="-99"/>
        </Node>
        <Node pos="r" depth="1" NCoef="0" IVar="8" Cut="4.3233931064605713e-01" cType="1" res="-2.0951028913259506e-02" rms="2.7014523744583130e-01" purity="1.1643355339765549e-01" nType="0">
          <Node pos="l" depth="2" NCoef="0" IVar="-1" Cut="0.0000000000000000e+00" cType="1" res="-1.4905180782079697e-02" rms="2.6013198494911194e-01" purity="1.0168354213237762e-01" nType="-99"/>
          <Node pos="r" depth="2" NCoef="0" IVar="-1" Cut="0.0000000000000000e+00" cType="1" res="2.3471377789974213e-02" rms="3.7921130657196045e-01" purity="3.3844670653343201e-01" nType="-99"/>
        </Node>
      </Node>
    </BinaryTree>
    <BinaryTree type="DecisionTree" boostWeight="1.0000000000000000e+00" itree="32">
      <Node pos="s" depth="0" NCoef="0" IVar="29" Cut="-9.6302780151367188e+01" cType="1" res="8.4686900663655251e-05" rms="3.2052192091941833e-01" purity="4.9944373965263367e-01" nType="0">
        <Node pos="l" depth="1" NCoef="0" IVar="12" Cut="5.3011015057563782e-02" cType="1" res="1.4857958070933819e-02" rms="3.3586734533309937e-01" purity="6.4573591947555542e-01" nType="0">
          <Node pos="l" depth="2" NCoef="0" IVar="-1" Cut="0.0000000000000000e+00" cType="1" res="1.3695470057427883e-02" rms="3.0094215273857117e-01" purity="7.3049283027648926e-01" nType="-99"/>
          <Node pos="r" depth="2" NCoef="0" IVar="-1" Cut="0.0000000000000000e+00" cType="1" res="-2.7310903533361852e-04" rms="3.6246335506439209e-01" purity="5.7293570041656494e-01" nType="-99"/>
        </Node>
        <Node pos="r" depth="1" NCoef="0" IVar="39" Cut="4.1248735040426254e-02" cType="1" res="-2.2607203572988510e-02" rms="2.9396012425422668e-01" purity="2.7473750710487366e-01" nType="0">
          <Node pos="l" depth="2" NCoef="0" IVar="-1" Cut="0.0000000000000000e+00" cType="1" res="-1.5078426338732243e-02" rms="2.8479719161987305e-01" purity="2.5341320037841797e-01" nType="-99"/>
          <Node pos="r" depth="2" NCoef="0" IVar="-1" Cut="0.0000000000000000e+00" cType="1" res="6.4919539727270603e-03" rms="3.3176225423812866e-01" purity="3.7695008516311646e-01" nType="-99"/>
        </Node>
      </Node>
    </BinaryTree>
    <BinaryTree type="DecisionTree" boostWeight="1.0000000000000000e+00" itree="33">
      <Node pos="s" depth="0" NCoef="0" IVar="34" Cut="-9.0561553955078125e+01" cType="1" res="1.5353423077613115e-03" rms="3.2086700201034546e-01" purity="4.9972096085548401e-01" nType="0">
        <Node pos="l" depth="1" NCoef="0" IVar="8" Cut="3.2169476151466370e-01" cType="1" res="1.5533495694398880e-02" rms="3.3632302284240723e-01" purity="6.4782553911209106e-01" nType="0">
          <Node pos="l" depth="2" NCoef="0" IVar="-1" Cut="0.0000000000000000e+00" cType="1" res="2.3478069342672825e-03" rms="3.3893415331840515e-01" purity="6.1935365200042725e-01" nType="-99"/>
          <Node pos="r" depth="2" NCoef="0" IVar="-1" Cut="0.0000000000000000e+00" cType="1" res="1.7696451395750046e-02" rms="3.2553118467330933e-01" purity="7.4317389726638794e-01" nType="-99"/>
        </Node>
        <Node pos="r" depth="1" NCoef="0" IVar="39" Cut="6.2724053859710693e-02" cType="1" res="-1.9959395751357079e-02" rms="2.9427099227905273e-01" purity="2.7230027318000793e-01" nType="0">
          <Node pos="l" depth="2" NCoef="0" IVar="-1" Cut="0.0000000000000000e+00" cType="1" res="-1.3484416529536247e-02" rms="2.8706252574920654e-01" purity="2.5127747654914856e-01" nType="-99"/>
          <Node pos="r" depth="2" NCoef="0" IVar="-1" Cut="0.0000000000000000e+00" cType="1" res="1.0325468145310879e-02" rms="3.3288398385047913e-01" purity="4.0602952241897583e-01" nType="-99"/>
        </Node>
      </Node>
    </BinaryTree>
    <BinaryTree type="DecisionTree" boostWeight="1.0000000000000000e+00" itree="34">
      <Node pos="s" depth="0" NCoef="0" IVar="9" Cut="6.0900455713272095e-01" cType="1" res="2.9512103646993637e-03" rms="3.1966531276702881e-01" purity="5.0032156705856323e-01" nType="0">
        <Node pos="l" depth="1" NCoef="0" IVar="16" Cut="4.7572544217109680e-01" cType="1" res="-5.0611293409019709e-04" rms="3.1965714693069458e-01" purity="4.8892158269882202e-01" nType="0">
          <Node pos="l" depth="2" NCoef="0" IVar="-1" Cut="0.0000000000000000e+00" cType="1" res="5.5773253552615643e-03" rms="3.6035141348838806e-01" purity="8.3848172426223755e-01" nType="-99"/>
          <Node pos="r" depth="2" NCoef="0" IVar="-1" Cut="0.0000000000000000e+00" cType="1" res="-1.0351153090596199e-02" rms="2.6772856712341309e-01" purity="1.1187094449996948e-01" nType="-99"/>
        </Node>
        <Node pos="r" depth="1" NCoef="0" IVar="-1" Cut="0.0000000000000000e+00" cType="1" res="3.7416268140077591e-02" rms="3.0384656786918640e-01" purity="8.2459944486618042e-01" nType="-99"/>
      </Node>
    </BinaryTree>
    <BinaryTree type="DecisionTree" boostWeight="1.0000000000000000e+00" itree="35">
      <Node pos="s" depth="0" NCoef="0" IVar="18" Cut="3.1815476417541504e+00" cType="1" res="1.7730549443513155e-03" rms="3.2044270634651184e-01" purity="5.0034803152084351e-01" nType="0">
        <Node pos="l" depth="1" NCoef="0" IVar="12" Cut="3.9569549262523651e-02" cType="1" res="1.2648683972656727e-02" rms="3.3837997913360596e-01" purity="6.1720222234725952e-01" nType="0">
          <Node pos="l" depth="2" NCoef="0" IVar="-1" Cut="0.0000000000000000e+00" cType="1" res="1.8640264868736267e-02" rms="2.8967586159706116e-01" purity="7.5376939773559570e-01" nType="-99"/>
          <Node pos="r" depth="2" NCoef="0" IVar="-1" Cut="0.0000000000000000e+00" cType="1" res="1.0519146599108353e-04" rms="3.5499176383018494e-01" purity="5.6336730718612671e-01" nType="-99"/>
        </Node>
        <Node pos="r" depth="1" NCoef="0" IVar="22" Cut="3.9162244796752930e+00" cType="1" res="-2.6147374883294106e-02" rms="2.6694938540458679e-01" purity="2.0035456120967865e-01" nType="0">
          <Node pos="l" depth="2" NCoef="0" IVar="-1" Cut="0.0000000000000000e+00" cType="1" res="-2.9544278979301453e-02" rms="2.2596894204616547e-01" purity="1.0383311659097672e-01" nType="-99"/>
          <Node pos="r" depth="2" NCoef="0" IVar="-1" Cut="0.0000000000000000e+00" cType="1" res="3.3258276525884867e-03" rms="3.3497813344001770e-01" purity="4.0443518757820129e-01" nType="-99"/>
        </Node>
      </Node>
    </BinaryTree>
    <BinaryTree type="DecisionTree" boostWeight="1.0000000000000000e+00" itree="36">
      <Node pos="s" depth="0" NCoef="0" IVar="14" Cut="3.7482398748397827e-01" cType="1" res="5.3061032667756081e-04" rms="3.2144844532012939e-01" purity="5.0000095367431641e-01" nType="0">
        <Node pos="l" depth="1" NCoef="0" IVar="0" Cut="5.3761905670166016e+01" cType="1" res="-1.8120270222425461e-02" rms="3.3346724510192871e-01" purity="3.9540040493011475e-01" nType="0">
          <Node pos="l" depth="2" NCoef="0" IVar="-1" Cut="0.0000000000000000e+00" cType="1" res="-1.6051571816205978e-02" rms="3.5812616348266602e-01" purity="3.6307203769683838e-01" nType="-99"/>
          <Node pos="r" depth="2" NCoef="0" IVar="-1" Cut="0.0000000000000000e+00" cType="1" res="-5.2670915611088276e-03" rms="3.2766884565353394e-01" purity="4.0236568450927734e-01" nType="-99"/>
        </Node>
        <Node pos="r" depth="1" NCoef="0" IVar="9" Cut="5.9709686040878296e-01" cType="1" res="1.2430760078132153e-02" rms="3.1295889616012573e-01" purity="5.6674110889434814e-01" nType="0">
          <Node pos="l" depth="2" NCoef="0" IVar="-1" Cut="0.0000000000000000e+00" cType="1" res="3.5921912640333176e-03" rms="3.1260618567466736e-01" purity="5.5142384767532349e-01" nType="-99"/>
          <Node pos="r" depth="2" NCoef="0" IVar="-1" Cut="0.0000000000000000e+00" cType="1" res="2.9128002002835274e-02" rms="3.1186550855636597e-01" purity="7.9939717054367065e-01" nType="-99"/>
        </Node>
      </Node>
    </BinaryTree>
    <BinaryTree type="DecisionTree" boostWeight="1.0000000000000000e+00" itree="37">
      <Node pos="s" depth="0" NCoef="0" IVar="12" Cut="3.6207765340805054e-02" cType="1" res="2.1512943785637617e-03" rms="3.1799441576004028e-01" purity="5.0064116716384888e-01" nType="0">
        <Node pos="l" depth="1" NCoef="0" IVar="18" Cut="6.0911459922790527e+00" cType="1" res="2.9098058119416237e-02" rms="2.8173044323921204e-01" purity="6.4781355857849121e-01" nType="0">
          <Node pos="l" depth="2" NCoef="0" IVar="-1" Cut="0.0000000000000000e+00" cType="1" res="1.7694102600216866e-02" rms="2.8492423892021179e-01" purity="7.3919814825057983e-01" nType="-99"/>
          <Node pos="r" depth="2" NCoef="0" IVar="-1" Cut="0.0000000000000000e+00" cType="1" res="-1.6780154779553413e-02" rms="2.5831732153892517e-01" purity="2.0701423287391663e-01" nType="-99"/>
        </Node>
        <Node pos="r" depth="1" NCoef="0" IVar="18" Cut="1.6436011791229248e+00" cType="1" res="-5.7662772014737129e-03" rms="3.2746693491935730e-01" purity="4.5739865303039551e-01" nType="0">
          <Node pos="l" depth="2" NCoef="0" IVar="-1" Cut="0.0000000000000000e+00" cType="1" res="1.4323706272989511e-03" rms="3.5188391804695129e-01" purity="5.9642851352691650e-01" nType="-99"/>
          <Node pos="r" depth="2" NCoef="0" IVar="-1" Cut="0.0000000000000000e+00" cType="1" res="-1.1890416964888573e-02" rms="2.7961042523384094e-01" purity="2.1762341260910034e-01" nType="-99"/>
        </Node>
      </Node>
    </BinaryTree>
    <BinaryTree type="DecisionTree" boostWeight="1.0000000000000000e+00" itree="38">
      <Node pos="s" depth="0" NCoef="0" IVar="16" Cut="4.7572544217109680e-01" cType="1" res="4.1945002158172429e-04" rms="3.1984406709671021e-01" purity="4.9793502688407898e-01" nType="0">
        <Node pos="l" depth="1" NCoef="0" IVar="0" Cut="6.3738094329833984e+01" cType="1" res="1.3389726169407368e-02" rms="3.5786828398704529e-01" purity="8.4063166379928589e-01" nType="0">
          <Node pos="l" depth="2" NCoef="0" IVar="-1" Cut="0.0000000000000000e+00" cType="1" res="-1.5490087680518627e-03" rms="3.8834276795387268e-01" purity="8.0445307493209839e-01" nType="-99"/>
          <Node pos="r" depth="2" NCoef="0" IVar="-1" Cut="0.0000000000000000e+00" cType="1" res="8.2758609205484390e-03" rms="3.4043443202972412e-01" purity="8.5957926511764526e-01" nType="-99"/>
        </Node>
        <Node pos="r" depth="1" NCoef="0" IVar="16" Cut="8.9976280927658081e-01" cType="1" res="-1.3920293189585209e-02" rms="2.7095803618431091e-01" purity="1.1905477941036224e-01" nType="0">
          <Node pos="l" depth="2" NCoef="0" IVar="-1" Cut="0.0000000000000000e+00" cType="1" res="5.8664293028414249e-03" rms="4.0831178426742554e-01" purity="2.8219246864318848e-01" nType="-99"/>
          <Node pos="r" depth="2" NCoef="0" IVar="-1" Cut="0.0000000000000000e+00" cType="1" res="-4.3585840612649918e-02" rms="9.8390176892280579e-02" purity="9.7808828577399254e-03" nType="-99"/>
        </Node>
      </Node>
    </BinaryTree>
    <BinaryTree type="DecisionTree" boostWeight="1.0000000000000000e+00" itree="39">
      <Node pos="s" depth="0" NCoef="0" IVar="12" Cut="3.8056489080190659e-02" cType="1" res="-1.7195148393511772e-03" rms="3.2140851020812988e-01" purity="4.9545750021934509e-01" nType="0">
        <Node pos="l" depth="1" NCoef="0" IVar="8" Cut="5.5116635560989380e-01" cType="1" res="2.1031025797128677e-02" rms="2.8719708323478699e-01" purity="6.3126420974731445e-01" nType="0">
          <Node pos="l" depth="2" NCoef="0" IVar="-1" Cut="0.0000000000000000e+00" cType="1" res="6.7839333787560463e-03" rms="2.8541877865791321e-01" purity="6.0804194211959839e-01" nType="-99"/>
          <Node pos="r" depth="2" NCoef="0" IVar="-1" Cut="0.0000000000000000e+00" cType="1" res="3.2089952379465103e-02" rms="2.9568213224411011e-01" purity="8.2447373867034912e-01" nType="-99"/>
        </Node>
        <Node pos="r" depth="1" NCoef="0" IVar="3" Cut="1.7551246643066406e+01" cType="1" res="-9.3552703037858009e-03" rms="3.3175238966941833e-01" purity="4.4987678527832031e-01" nType="0">
          <Node pos="l" depth="2" NCoef="0" IVar="-1" Cut="0.0000000000000000e+00" cType="1" res="-5.7539697736501694e-03" rms="3.2905513048171997e-01" purity="4.4385448098182678e-01" nType="-99"/>
          <Node pos="r" depth="2" NCoef="0" IVar="-1" Cut="0.0000000000000000e+00" cType="1" res="6.9751222617924213e-03" rms="3.4696623682975769e-01" purity="4.8781996965408325e-01" nType="-99"/>
        </Node>
      </Node>
    </BinaryTree>
    <BinaryTree type="DecisionTree" boostWeight="1.0000000000000000e+00" itree="40">
      <Node pos="s" depth="0" NCoef="0" IVar="8" Cut="5.0277465581893921e-01" cType="1" res="2.5042882189154625e-03" rms="3.2040807604789734e-01" purity="5.0098681449890137e-01" nType="0">
        <Node pos="l" depth="1" NCoef="0" IVar="16" Cut="4.7572544217109680e-01" cType="1" res="-3.9361594826914370e-04" rms="3.2029795646667480e-01" purity="4.8577034473419189e-01" nType="0">
          <Node pos="l" depth="2" NCoef="0" IVar="-1" Cut="0.0000000000000000e+00" cType="1" res="4.0019638836383820e-03" rms="3.6321893334388733e-01" purity="8.3556920289993286e-01" nType="-99"/>
          <Node pos="r" depth="2" NCoef="0" IVar="-1" Cut="0.0000000000000000e+00" cType="1" res="-7.6626399531960487e-03" rms="2.6622343063354492e-01" purity="1.1149257421493530e-01" nType="-99"/>
        </Node>
        <Node pos="r" depth="1" NCoef="0" IVar="9" Cut="6.3434147834777832e-01" cType="1" res="5.4526884108781815e-02" rms="3.1791660189628601e-01" purity="7.7414900064468384e-01" nType="0">
          <Node pos="l" depth="2" NCoef="0" IVar="-1" Cut="0.0000000000000000e+00" cType="1" res="1.4328207820653915e-02" rms="3.2818934321403503e-01" purity="7.2357678413391113e-01" nType="-99"/>
          <Node pos="r" depth="2" NCoef="0" IVar="-1" Cut="0.0000000000000000e+00" cType="1" res="2.9851645231246948e-02" rms="3.0631506443023682e-01" purity="8.2376766204833984e-01" nType="-99"/>
        </Node>
      </Node>
    </BinaryTree>
    <BinaryTree type="DecisionTree" boostWeight="1.0000000000000000e+00" itree="41">
      <Node pos="s" depth="0" NCoef="0" IVar="18" Cut="5.4215030670166016e+00" cType="1" res="2.8365103062242270e-03" rms="3.1875646114349365e-01" purity="5.0410467386245728e-01" nType="0">
        <Node pos="l" depth="1" NCoef="0" IVar="12" Cut="6.6263765096664429e-02" cType="1" res="1.0125507600605488e-02" rms="3.3294770121574402e-01" purity="5.8836495876312256e-01" nType="0">
          <Node pos="l" depth="2" NCoef="0" IVar="-1" Cut="0.0000000000000000e+00" cType="1" res="9.5551488921046257e-03" rms="3.0401429533958435e-01" purity="6.6402029991149902e-01" nType="-99"/>
          <Node pos="r" depth="2" NCoef="0" IVar="-1" Cut="0.0000000000000000e+00" cType="1" res="-1.9706625025719404e-03" rms="3.6667320132255554e-01" purity="4.8971080780029297e-01" nType="-99"/>
        </Node>
        <Node pos="r" depth="1" NCoef="0" IVar="39" Cut="5.9394326061010361e-02" cType="1" res="-2.6199935004115105e-02" rms="2.5240567326545715e-01" purity="1.6844531893730164e-01" nType="0">
          <Node pos="l" depth="2" NCoef="0" IVar="-1" Cut="0.0000000000000000e+00" cType="1" res="-2.4212382733821869e-02" rms="2.3563337326049805e-01" purity="1.2837080657482147e-01" nType="-99"/>
          <Node pos="r" depth="2" NCoef="0" IVar="-1" Cut="0.0000000000000000e+00" cType="1" res="1.0418243706226349e-02" rms="3.3233430981636047e-01" purity="4.1241526603698730e-01" nType="-99"/>
        </Node>
      </Node>
    </BinaryTree>
    <BinaryTree type="DecisionTree" boostWeight="1.0000000000000000e+00" itree="42">
      <Node pos="s" depth="0" NCoef="0" IVar="18" Cut="3.1815476417541504e+00" cType="1" res="8.1395864253863692e-04" rms="3.1856960058212280e-01" purity="4.9862569570541382e-01" nType="0">
        <Node pos="l" depth="1" NCoef="0" IVar="9" Cut="3.2792553305625916e-01" cType="1" res="8.3366576582193375e-03" rms="3.3778956532478333e-01" purity="6.1731451749801636e-01" nType="0">
          <Node pos="l" depth="2" NCoef="0" IVar="-1" Cut="0.0000000000000000e+00" cType="1" res="6.4642942743375897e-04" rms="3.3942490816116333e-01" purity="5.8756929636001587e-01" nType="-99"/>
          <Node pos="r" depth="2" NCoef="0" IVar="-1" Cut="0.0000000000000000e+00" cType="1" res="9.5437541604042053e-03" rms="3.3330252766609192e-01" purity="6.8854218721389771e-01" nType="-99"/>
        </Node>
        <Node pos="r" depth="1" NCoef="0" IVar="39" Cut="5.5426787585020065e-02" cType="1" res="-1.8311249092221260e-02" rms="2.6249742507934570e-01" purity="1.9687908887863159e-01" nType="0">
          <Node pos="l" depth="2" NCoef="0" IVar="-1" Cut="0.0000000000000000e+00" cType="1" res="-1.6147701069712639e-02" rms="2.4429805576801300e-01" purity="1.5885868668556213e-01" nType="-99"/>
          <Node pos="r" depth="2" NCoef="0" IVar="-1" Cut="0.0000000000000000e+00" cType="1" res="6.0906279832124710e-03" rms="3.3777156472206116e-01" purity="3.8851091265678406e-01" nType="-99"/>
        </Node>
      </Node>
    </BinaryTree>
    <BinaryTree type="DecisionTree" boostWeight="1.0000000000000000e+00" itree="43">
      <Node pos="s" depth="0" NCoef="0" IVar="16" Cut="4.7572544217109680e-01" cType="1" res="1.2164721852059301e-07" rms="3.1863871216773987e-01" purity="4.9892559647560120e-01" nType="0">
        <Node pos="l" depth="1" NCoef="0" IVar="6" Cut="2.6598867774009705e-01" cType="1" res="9.8810102790594101e-03" rms="3.5747611522674561e-01" purity="8.4089195728302002e-01" nType="0">
          <Node pos="l" depth="2" NCoef="0" IVar="-1" Cut="0.0000000000000000e+00" cType="1" res="-7.1117305196821690e-03" rms="3.7755364179611206e-01" purity="8.1330424547195435e-01" nType="-99"/>
          <Node pos="r" depth="2" NCoef="0" IVar="-1" Cut="0.0000000000000000e+00" cType="1" res="5.8813798241317272e-03" rms="3.5229092836380005e-01" purity="8.4730726480484009e-01" nType="-99"/>
        </Node>
        <Node pos="r" depth="1" NCoef="0" IVar="16" Cut="6.7532783746719360e-01" cType="1" res="-1.0977836325764656e-02" rms="2.6856586337089539e-01" purity="1.1899094283580780e-01" nType="0">
          <Node pos="l" depth="2" NCoef="0" IVar="-1" Cut="0.0000000000000000e+00" cType="1" res="1.0886934585869312e-02" rms="4.8116785287857056e-01" purity="4.9061879515647888e-01" nType="-99"/>
          <Node pos="r" depth="2" NCoef="0" IVar="-1" Cut="0.0000000000000000e+00" cType="1" res="-1.7399717122316360e-02" rms="2.1004839241504669e-01" purity="5.5536698549985886e-02" nType="-99"/>
        </Node>
      </Node>
    </BinaryTree>
    <BinaryTree type="DecisionTree" boostWeight="1.0000000000000000e+00" itree="44">
      <Node pos="s" depth="0" NCoef="0" IVar="14" Cut="3.7672194838523865e-01" cType="1" res="5.6202057749032974e-04" rms="3.1882584095001221e-01" purity="5.0142109394073486e-01" nType="0">
        <Node pos="l" depth="1" NCoef="0" IVar="3" Cut="1.1333147048950195e+01" cType="1" res="-1.2170676141977310e-02" rms="3.3405533432960510e-01" purity="4.0371224284172058e-01" nType="0">
          <Node pos="l" depth="2" NCoef="0" IVar="-1" Cut="0.0000000000000000e+00" cType="1" res="-1.1521616950631142e-02" rms="3.2762682437896729e-01" purity="3.6204206943511963e-01" nType="-99"/>
          <Node pos="r" depth="2" NCoef="0" IVar="-1" Cut="0.0000000000000000e+00" cType="1" res="-1.5113733243197203e-03" rms="3.3740022778511047e-01" purity="4.2762550711631775e-01" nType="-99"/>
        </Node>
        <Node pos="r" depth="1" NCoef="0" IVar="18" Cut="6.0911459922790527e+00" cType="1" res="8.9104212820529938e-03" rms="3.0814701318740845e-01" purity="5.6548553705215454e-01" nType="0">
          <Node pos="l" depth="2" NCoef="0" IVar="-1" Cut="0.0000000000000000e+00" cType="1" res="5.7020480744540691e-03" rms="3.1639996170997620e-01" purity="6.2789177894592285e-01" nType="-99"/>
          <Node pos="r" depth="2" NCoef="0" IVar="-1" Cut="0.0000000000000000e+00" cType="1" res="-1.1808564886450768e-02" rms="2.5170856714248657e-01" purity="1.9334955513477325e-01" nType="-99"/>
        </Node>
      </Node>
    </BinaryTree>
    <BinaryTree type="DecisionTree" boostWeight="1.0000000000000000e+00" itree="45">
      <Node pos="s" depth="0" NCoef="0" IVar="18" Cut="3.1815476417541504e+00" cType="1" res="2.3848616983741522e-03" rms="3.1721526384353638e-01" purity="5.0331681966781616e-01" nType="0">
        <Node pos="l" depth="1" NCoef="0" IVar="12" Cut="3.9758261293172836e-02" cType="1" res="9.0426858514547348e-03" rms="3.3609843254089355e-01" purity="6.2279403209686279e-01" nType="0">
          <Node pos="l" depth="2" NCoef="0" IVar="-1" Cut="0.0000000000000000e+00" cType="1" res="1.2559255585074425e-02" rms="2.8480306267738342e-01" purity="7.5575911998748779e-01" nType="-99"/>
          <Node pos="r" depth="2" NCoef="0" IVar="-1" Cut="0.0000000000000000e+00" cType="1" res="6.9046061253175139e-04" rms="3.5418280959129333e-01" purity="5.6992757320404053e-01" nType="-99"/>
        </Node>
        <Node pos="r" depth="1" NCoef="0" IVar="39" Cut="5.3475979715585709e-02" cType="1" res="-1.4521553181111813e-02" rms="2.6248875260353088e-01" purity="1.9992469251155853e-01" nType="0">
          <Node pos="l" depth="2" NCoef="0" IVar="-1" Cut="0.0000000000000000e+00" cType="1" res="-1.3770160265266895e-02" rms="2.4837200343608856e-01" purity="1.6247893869876862e-01" nType="-99"/>
          <Node pos="r" depth="2" NCoef="0" IVar="-1" Cut="0.0000000000000000e+00" cType="1" res="7.7151888981461525e-03" rms="3.2220560312271118e-01" purity="3.8782212138175964e-01" nType="-99"/>
        </Node>
      </Node>
    </BinaryTree>
    <BinaryTree type="DecisionTree" boostWeight="1.0000000000000000e+00" itree="46">
      <Node pos="s" depth="0" NCoef="0" IVar="9" Cut="6.0900455713272095e-01" cType="1" res="1.4092971105128527e-03" rms="3.1865784525871277e-01" purity="5.0227499008178711e-01" nType="0">
        <Node pos="l" depth="1" NCoef="0" IVar="16" Cut="4.7572544217109680e-01" cType="1" res="-8.1128691090270877e-04" rms="3.1923848390579224e-01" purity="4.9032124876976013e-01" nType="0">
          <Node pos="l" depth="2" NCoef="0" IVar="-1" Cut="0.0000000000000000e+00" cType="1" res="3.0299914069473743e-03" rms="3.6006087064743042e-01" purity="8.3743631839752197e-01" nType="-99"/>
          <Node pos="r" depth="2" NCoef="0" IVar="-1" Cut="0.0000000000000000e+00" cType="1" res="-6.5672849304974079e-03" rms="2.6729950308799744e-01" purity="1.1154401302337646e-01" nType="-99"/>
        </Node>
        <Node pos="r" depth="1" NCoef="0" IVar="-1" Cut="0.0000000000000000e+00" cType="1" res="2.7162099257111549e-02" rms="2.9577398300170898e-01" purity="8.3118736743927002e-01" nType="-99"/>
      </Node>
    </BinaryTree>
    <BinaryTree type="DecisionTree" boostWeight="1.0000000000000000e+00" itree="47">
      <Node pos="s" depth="0" NCoef="0" IVar="12" Cut="2.6379698887467384e-02" cType="1" res="-8.4127380978316069e-04" rms="3.1893816590309143e-01" purity="5.0112116336822510e-01" nType="0">
        <Node pos="l" depth="1" NCoef="0" IVar="12" Cut="2.2608101367950439e-02" cType="1" res="2.4660320952534676e-02" rms="2.8215873241424561e-01" purity="6.9711840152740479e-01" nType="0">
          <Node pos="l" depth="2" NCoef="0" IVar="-1" Cut="0.0000000000000000e+00" cType="1" res="1.6286160796880722e-02" rms="2.7800247073173523e-01" purity="7.2128731012344360e-01" nType="-99"/>
          <Node pos="r" depth="2" NCoef="0" IVar="-1" Cut="0.0000000000000000e+00" cType="1" res="2.0166381727904081e-03" rms="2.9035243391990662e-01" purity="6.4206439256668091e-01" nType="-99"/>
        </Node>
        <Node pos="r" depth="1" NCoef="0" IVar="16" Cut="4.7572544217109680e-01" cType="1" res="-4.2173913680016994e-03" rms="3.2334330677986145e-01" purity="4.7517338395118713e-01" nType="0">
          <Node pos="l" depth="2" NCoef="0" IVar="-1" Cut="0.0000000000000000e+00" cType="1" res="1.2543861521407962e-03" rms="3.7098193168640137e-01" purity="8.2604306936264038e-01" nType="-99"/>
          <Node pos="r" depth="2" NCoef="0" IVar="-1" Cut="0.0000000000000000e+00" cType="1" res="-7.4282120913267136e-03" rms="2.6452946662902832e-01" purity="1.0981670767068863e-01" nType="-99"/>
        </Node>
      </Node>
    </BinaryTree>
    <BinaryTree type="DecisionTree" boostWeight="1.0000000000000000e+00" itree="48">
      <Node pos="s" depth="0" NCoef="0" IVar="8" Cut="3.2169476151466370e-01" cType="1" res="1.5824750298634171e-03" rms="3.1670558452606201e-01" purity="4.9993443489074707e-01" nType="0">
        <Node pos="l" depth="1" NCoef="0" IVar="16" Cut="4.7572544217109680e-01" cType="1" res="-3.3795589115470648e-03" rms="3.1609556078910828e-01" purity="4.6447595953941345e-01" nType="0">
          <Node pos="l" depth="2" NCoef="0" IVar="-1" Cut="0.0000000000000000e+00" cType="1" res="2.3339872714132071e-03" rms="3.6648336052894592e-01" purity="8.2978707551956177e-01" nType="-99"/>
          <Node pos="r" depth="2" NCoef="0" IVar="-1" Cut="0.0000000000000000e+00" cType="1" res="-8.5165100172162056e-03" rms="2.5549849867820740e-01" purity="9.8798058927059174e-02" nType="-99"/>
        </Node>
        <Node pos="r" depth="1" NCoef="0" IVar="4" Cut="7.2492547333240509e-02" cType="1" res="2.1019548177719116e-02" rms="3.1833982467651367e-01" purity="6.3883072137832642e-01" nType="0">
          <Node pos="l" depth="2" NCoef="0" IVar="-1" Cut="0.0000000000000000e+00" cType="1" res="2.0824808627367020e-02" rms="3.4395390748977661e-01" purity="7.5071120262145996e-01" nType="-99"/>
          <Node pos="r" depth="2" NCoef="0" IVar="-1" Cut="0.0000000000000000e+00" cType="1" res="6.5947598777711391e-03" rms="3.1269714236259460e-01" purity="6.1685067415237427e-01" nType="-99"/>
        </Node>
      </Node>
    </BinaryTree>
    <BinaryTree type="DecisionTree" boostWeight="1.0000000000000000e+00" itree="49">
      <Node pos="s" depth="0" NCoef="0" IVar="13" Cut="8.1778340041637421e-02" cType="1" res="1.1658957228064537e-03" rms="3.1901207566261292e-01" purity="5.0084680318832397e-01" nType="0">
        <Node pos="l" depth="1" NCoef="0" IVar="29" Cut="-9.6302505493164062e+01" cType="1" res="3.1626098789274693e-03" rms="3.1568926572799683e-01" purity="5.0667023658752441e-01" nType="0">
          <Node pos="l" depth="2" NCoef="0" IVar="-1" Cut="0.0000000000000000e+00" cType="1" res="3.8848991971462965e-03" rms="3.3033156394958496e-01" purity="6.5329092741012573e-01" nType="-99"/>
          <Node pos="r" depth="2" NCoef="0" IVar="-1" Cut="0.0000000000000000e+00" cType="1" res="-3.5777133889496326e-03" rms="2.9137906432151794e-01" purity="2.8043115139007568e-01" nType="-99"/>
        </Node>
        <Node pos="r" depth="1" NCoef="0" IVar="-1" Cut="0.0000000000000000e+00" cType="1" res="-1.5267135575413704e-02" rms="3.8403525948524475e-01" purity="3.6870104074478149e-01" nType="-99"/>
      </Node>
    </BinaryTree>
    <BinaryTree type="DecisionTree" boostWeight="1.0000000000000000e+00" itree="50">
      <Node pos="s" depth="0" NCoef="0" IVar="18" Cut="5.2857141494750977e+00" cType="1" res="-1.7804554663598537e-03" rms="3.1860166788101196e-01" purity="4.9934557080268860e-01" nType="0">
        <Node pos="l" depth="1" NCoef="0" IVar="14" Cut="3.4231469035148621e-01" cType="1" res="3.3369238954037428e-03" rms="3.3346307277679443e-01" purity="5.8536744117736816e-01" nType="0">
          <Node pos="l" depth="2" NCoef="0" IVar="-1" Cut="0.0000000000000000e+00" cType="1" res="-5.2116736769676208e-03" rms="3.7161973118782043e-01" purity="4.7596773505210876e-01" nType="-99"/>
          <Node pos="r" depth="2" NCoef="0" IVar="-1" Cut="0.0000000000000000e+00" cType="1" res="3.6627207882702351e-03" rms="3.2135298848152161e-01" purity="6.1711138486862183e-01" nType="-99"/>
        </Node>
        <Node pos="r" depth="1" NCoef="0" IVar="39" Cut="4.6813031658530235e-03" cType="1" res="-2.1794624626636505e-02" rms="2.5120496749877930e-01" purity="1.6291250288486481e-01" nType="0">
          <Node pos="l" depth="2" NCoef="0" IVar="-1" Cut="0.0000000000000000e+00" cType="1" res="-2.6622669771313667e-02" rms="2.1778990328311920e-01" purity="1.0495948046445847e-01" nType="-99"/>
          <Node pos="r" depth="2" NCoef="0" IVar="-1" Cut="0.0000000000000000e+00" cType="1" res="2.5781006552278996e-03" rms="3.1316348910331726e-01" purity="2.9606050252914429e-01" nType="-99"/>
        </Node>
      </Node>
    </BinaryTree>
    <BinaryTree type="DecisionTree" boostWeight="1.0000000000000000e+00" itree="51">
      <Node pos="s" depth="0" NCoef="0" IVar="14" Cut="3.3575049042701721e-01" cType="1" res="-2.1185090299695730e-03" rms="3.1916114687919617e-01" purity="4.9816212058067322e-01" nType="0">
        <Node pos="l" depth="1" NCoef="0" IVar="3" Cut="1.2035528182983398e+01" cType="1" res="-1.7733193933963776e-02" rms="3.3724138140678406e-01" purity="3.6982941627502441e-01" nType="0">
          <Node pos="l" depth="2" NCoef="0" IVar="-1" Cut="0.0000000000000000e+00" cType="1" res="-1.6150193288922310e-02" rms="3.2083171606063843e-01" purity="3.1581485271453857e-01" nType="-99"/>
          <Node pos="r" depth="2" NCoef="0" IVar="-1" Cut="0.0000000000000000e+00" cType="1" res="-3.0708569101989269e-03" rms="3.4496796131134033e-01" purity="3.9766988158226013e-01" nType="-99"/>
        </Node>
        <Node pos="r" depth="1" NCoef="0" IVar="4" Cut="4.7511756420135498e-01" cType="1" res="2.3689325898885727e-03" rms="3.1362870335578918e-01" purity="5.3504317998886108e-01" nType="0">
          <Node pos="l" depth="2" NCoef="0" IVar="-1" Cut="0.0000000000000000e+00" cType="1" res="2.0831779111176729e-03" rms="3.1243339180946350e-01" purity="5.3039819002151489e-01" nType="-99"/>
          <Node pos="r" depth="2" NCoef="0" IVar="-1" Cut="0.0000000000000000e+00" cType="1" res="-1.4490743167698383e-02" rms="3.2901623845100403e-01" purity="6.0354048013687134e-01" nType="-99"/>
        </Node>
      </Node>
    </BinaryTree>
    <BinaryTree type="DecisionTree" boostWeight="1.0000000000000000e+00" itree="52">
      <Node pos="s" depth="0" NCoef="0" IVar="16" Cut="4.7572544217109680e-01" cType="1" res="1.4457835350185633e-03" rms="3.1732171773910522e-01" purity="5.0047081708908081e-01" nType="0">
        <Node pos="l" depth="1" NCoef="0" IVar="1" Cut="1.7137974500656128e+00" cType="1" res="8.1328181549906731e-03" rms="3.5498729348182678e-01" purity="8.4337377548217773e-01" nType="0">
          <Node pos="l" depth="2" NCoef="0" IVar="-1" Cut="0.0000000000000000e+00" cType="1" res="4.1059814393520355e-03" rms="3.5178732872009277e-01" purity="8.4682315587997437e-01" nType="-99"/>
          <Node pos="r" depth="2" NCoef="0" IVar="-1" Cut="0.0000000000000000e+00" cType="1" res="-1.5664899721741676e-02" rms="4.0013977885246277e-01" purity="7.8699320554733276e-01" nType="-99"/>
        </Node>
        <Node pos="r" depth="1" NCoef="0" IVar="16" Cut="8.0001395940780640e-01" cType="1" res="-5.9534865431487560e-03" rms="2.6938599348068237e-01" purity="1.2104531377553940e-01" nType="0">
          <Node pos="l" depth="2" NCoef="0" IVar="-1" Cut="0.0000000000000000e+00" cType="1" res="9.5993690192699432e-03" rms="4.6179810166358948e-01" purity="3.9956092834472656e-01" nType="-99"/>
          <Node pos="r" depth="2" NCoef="0" IVar="-1" Cut="0.0000000000000000e+00" cType="1" res="-2.6310570538043976e-02" rms="1.5169961750507355e-01" purity="2.4924322962760925e-02" nType="-99"/>
        </Node>
      </Node>
    </BinaryTree>
    <BinaryTree type="DecisionTree" boostWeight="1.0000000000000000e+00" itree="53">
      <Node pos="s" depth="0" NCoef="0" IVar="12" Cut="2.4864180013537407e-02" cType="1" res="-1.1508190073072910e-03" rms="3.1813928484916687e-01" purity="4.9834287166595459e-01" nType="0">
        <Node pos="l" depth="1" NCoef="0" IVar="12" Cut="2.0127311348915100e-02" cType="1" res="2.6101337745785713e-02" rms="2.8322517871856689e-01" purity="7.0302110910415649e-01" nType="0">
          <Node pos="l" depth="2" NCoef="0" IVar="-1" Cut="0.0000000000000000e+00" cType="1" res="1.9430154934525490e-02" rms="2.7702668309211731e-01" purity="7.4336522817611694e-01" nType="-99"/>
          <Node pos="r" depth="2" NCoef="0" IVar="-1" Cut="0.0000000000000000e+00" cType="1" res="3.0179920140653849e-03" rms="2.9054006934165955e-01" purity="6.4621961116790771e-01" nType="-99"/>
        </Node>
        <Node pos="r" depth="1" NCoef="0" IVar="4" Cut="4.1281786561012268e-01" cType="1" res="-4.1546220891177654e-03" rms="3.2161462306976318e-01" purity="4.7578272223472595e-01" nType="0">
          <Node pos="l" depth="2" NCoef="0" IVar="-1" Cut="0.0000000000000000e+00" cType="1" res="-8.6866610217839479e-04" rms="3.2098695635795593e-01" purity="4.7273585200309753e-01" nType="-99"/>
          <Node pos="r" depth="2" NCoef="0" IVar="-1" Cut="0.0000000000000000e+00" cType="1" res="-1.8170859664678574e-02" rms="3.2938587665557861e-01" purity="5.2325218915939331e-01" nType="-99"/>
        </Node>
      </Node>
    </BinaryTree>
    <BinaryTree type="DecisionTree" boostWeight="1.0000000000000000e+00" itree="54">
      <Node pos="s" depth="0" NCoef="0" IVar="13" Cut="4.6241872012615204e-02" cType="1" res="5.8930681552737951e-04" rms="3.1683713197708130e-01" purity="4.9784374237060547e-01" nType="0">
        <Node pos="l" depth="1" NCoef="0" IVar="18" Cut="6.0911459922790527e+00" cType="1" res="5.7459208182990551e-03" rms="3.0143430829048157e-01" purity="5.3719419240951538e-01" nType="0">
          <Node pos="l" depth="2" NCoef="0" IVar="-1" Cut="0.0000000000000000e+00" cType="1" res="4.3947775848209858e-03" rms="3.1324809789657593e-01" purity="6.2442004680633545e-01" nType="-99"/>
          <Node pos="r" depth="2" NCoef="0" IVar="-1" Cut="0.0000000000000000e+00" cType="1" res="-8.9930938556790352e-03" rms="2.4358332157135010e-01" purity="1.6328695416450500e-01" nType="-99"/>
        </Node>
        <Node pos="r" depth="1" NCoef="0" IVar="2" Cut="1.9441034793853760e+00" cType="1" res="-1.3095913454890251e-02" rms="3.5412067174911499e-01" purity="3.9341101050376892e-01" nType="0">
          <Node pos="l" depth="2" NCoef="0" IVar="-1" Cut="0.0000000000000000e+00" cType="1" res="-3.1552622094750404e-03" rms="3.5428372025489807e-01" purity="3.9789265394210815e-01" nType="-99"/>
          <Node pos="r" depth="2" NCoef="0" IVar="-1" Cut="0.0000000000000000e+00" cType="1" res="-1.3045371510088444e-02" rms="3.5260897874832153e-01" purity="3.7375682592391968e-01" nType="-99"/>
        </Node>
      </Node>
    </BinaryTree>
    <BinaryTree type="DecisionTree" boostWeight="1.0000000000000000e+00" itree="55">
      <Node pos="s" depth="0" NCoef="0" IVar="9" Cut="5.9996992349624634e-01" cType="1" res="2.5420223828405142e-03" rms="3.1698098778724670e-01" purity="5.0032758712768555e-01" nType="0">
        <Node pos="l" depth="1" NCoef="0" IVar="16" Cut="4.7572544217109680e-01" cType="1" res="1.0219315299764276e-03" rms="3.1712198257446289e-01" purity="4.8836004734039307e-01" nType="0">
          <Node pos="l" depth="2" NCoef="0" IVar="-1" Cut="0.0000000000000000e+00" cType="1" res="2.8291796334087849e-03" rms="3.5819444060325623e-01" purity="8.3952474594116211e-01" nType="-99"/>
          <Node pos="r" depth="2" NCoef="0" IVar="-1" Cut="0.0000000000000000e+00" cType="1" res="-3.9700418710708618e-03" rms="2.6576471328735352e-01" purity="1.1071186512708664e-01" nType="-99"/>
        </Node>
        <Node pos="r" depth="1" NCoef="0" IVar="-1" Cut="0.0000000000000000e+00" cType="1" res="1.9122390076518059e-02" rms="3.1073170900344849e-01" purity="8.1014066934585571e-01" nType="-99"/>
      </Node>
    </BinaryTree>
    <BinaryTree type="DecisionTree" boostWeight="1.0000000000000000e+00" itree="56">
      <Node pos="s" depth="0" NCoef="0" IVar="5" Cut="1.0992801934480667e-01" cType="1" res="-1.2261030497029424e-03" rms="3.1871008872985840e-01" purity="4.9885749816894531e-01" nType="0">
        <Node pos="l" depth="1" NCoef="0" IVar="-1" Cut="0.0000000000000000e+00" cType="1" res="1.6718527302145958e-02" rms="3.5043615102767944e-01" purity="7.3936271667480469e-01" nType="-99"/>
        <Node pos="r" depth="1" NCoef="0" IVar="14" Cut="5.7819658517837524e-01" cType="1" res="-2.4971468374133110e-03" rms="3.1764307618141174e-01" purity="4.9180778861045837e-01" nType="0">
          <Node pos="l" depth="2" NCoef="0" IVar="-1" Cut="0.0000000000000000e+00" cType="1" res="1.7873744582175277e-05" rms="3.1657171249389648e-01" purity="4.8279497027397156e-01" nType="-99"/>
          <Node pos="r" depth="2" NCoef="0" IVar="-1" Cut="0.0000000000000000e+00" cType="1" res="-1.4952204190194607e-02" rms="3.2800611853599548e-01" purity="5.9207737445831299e-01" nType="-99"/>
        </Node>
      </Node>
    </BinaryTree>
    <BinaryTree type="DecisionTree" boostWeight="1.0000000000000000e+00" itree="57">
      <Node pos="s" depth="0" NCoef="0" IVar="14" Cut="3.8321757316589355e-01" cType="1" res="2.6003352832049131e-03" rms="3.1763836741447449e-01" purity="5.0177526473999023e-01" nType="0">
        <Node pos="l" depth="1" NCoef="0" IVar="15" Cut="4.7200521826744080e-01" cType="1" res="-5.9229624457657337e-03" rms="3.3270490169525146e-01" purity="4.0666571259498596e-01" nType="0">
          <Node pos="l" depth="2" NCoef="0" IVar="-1" Cut="0.0000000000000000e+00" cType="1" res="-1.6452902927994728e-02" rms="3.4398132562637329e-01" purity="3.7668451666831970e-01" nType="-99"/>
          <Node pos="r" depth="2" NCoef="0" IVar="-1" Cut="0.0000000000000000e+00" cType="1" res="-9.9457986652851105e-04" rms="3.3125334978103638e-01" purity="4.0994185209274292e-01" nType="-99"/>
        </Node>
        <Node pos="r" depth="1" NCoef="0" IVar="24" Cut="2.4910360336303711e+01" cType="1" res="8.8694496080279350e-03" rms="3.0593201518058777e-01" purity="5.7173085212707520e-01" nType="0">
          <Node pos="l" depth="2" NCoef="0" IVar="-1" Cut="0.0000000000000000e+00" cType="1" res="2.8286352753639221e-03" rms="3.0402326583862305e-01" purity="5.7260227203369141e-01" nType="-99"/>
          <Node pos="r" depth="2" NCoef="0" IVar="-1" Cut="0.0000000000000000e+00" cType="1" res="2.0810931921005249e-02" rms="3.3181139826774597e-01" purity="5.5763745307922363e-01" nType="-99"/>
        </Node>
      </Node>
    </BinaryTree>
    <BinaryTree type="DecisionTree" boostWeight="1.0000000000000000e+00" itree="58">
      <Node pos="s" depth="0" NCoef="0" IVar="35" Cut="6.5839642286300659e-01" cType="1" res="-1.2477982090786099e-03" rms="3.1901437044143677e-01" purity="4.9814772605895996e-01" nType="0">
        <Node pos="l" depth="1" NCoef="0" IVar="24" Cut="7.0054574012756348e+00" cType="1" res="2.6125179138034582e-03" rms="3.2497483491897583e-01" purity="5.6620490550994873e-01" nType="0">
          <Node pos="l" depth="2" NCoef="0" IVar="-1" Cut="0.0000000000000000e+00" cType="1" res="1.0158201621379703e-04" rms="3.2343974709510803e-01" purity="5.7274675369262695e-01" nType="-99"/>
          <Node pos="r" depth="2" NCoef="0" IVar="-1" Cut="0.0000000000000000e+00" cType="1" res="1.2901268899440765e-02" rms="3.4299370646476746e-01" purity="4.8018264770507812e-01" nType="-99"/>
        </Node>
        <Node pos="r" depth="1" NCoef="0" IVar="39" Cut="-1.6409355401992798e-01" cType="1" res="-1.4061822555959225e-02" rms="2.9801839590072632e-01" purity="2.7223715186119080e-01" nType="0">
          <Node pos="l" depth="2" NCoef="0" IVar="-1" Cut="0.0000000000000000e+00" cType="1" res="5.1921163685619831e-03" rms="3.5783308744430542e-01" purity="4.7556060552597046e-01" nType="-99"/>
          <Node pos="r" depth="2" NCoef="0" IVar="-1" Cut="0.0000000000000000e+00" cType="1" res="-1.4064795337617397e-02" rms="2.7511629462242126e-01" purity="2.0592531561851501e-01" nType="-99"/>
        </Node>
      </Node>
    </BinaryTree>
    <BinaryTree type="DecisionTree" boostWeight="1.0000000000000000e+00" itree="59">
      <Node pos="s" depth="0" NCoef="0" IVar="18" Cut="1.1470982551574707e+01" cType="1" res="-8.8713061995804310e-04" rms="3.1842416524887085e-01" purity="4.9955761432647705e-01" nType="0">
        <Node pos="l" depth="1" NCoef="0" IVar="0" Cut="5.7142856597900391e+01" cType="1" res="1.3104025274515152e-03" rms="3.2574793696403503e-01" purity="5.3684681653976440e-01" nType="0">
          <Node pos="l" depth="2" NCoef="0" IVar="-1" Cut="0.0000000000000000e+00" cType="1" res="-4.0502380579710007e-03" rms="3.3989107608795166e-01" purity="4.8343482613563538e-01" nType="-99"/>
          <Node pos="r" depth="2" NCoef="0" IVar="-1" Cut="0.0000000000000000e+00" cType="1" res="2.5084596127271652e-03" rms="3.1985116004943848e-01" purity="5.5805706977844238e-01" nType="-99"/>
        </Node>
        <Node pos="r" depth="1" NCoef="0" IVar="21" Cut="5.0718617439270020e-01" cType="1" res="-2.2894816473126411e-02" rms="2.3154689371585846e-01" purity="1.2611709535121918e-01" nType="0">
          <Node pos="l" depth="2" NCoef="0" IVar="-1" Cut="0.0000000000000000e+00" cType="1" res="-5.4341815412044525e-03" rms="2.5685063004493713e-01" purity="1.7497651278972626e-01" nType="-99"/>
          <Node pos="r" depth="2" NCoef="0" IVar="-1" Cut="0.0000000000000000e+00" cType="1" res="-3.3091213554143906e-02" rms="2.0644320547580719e-01" purity="8.4105744957923889e-02" nType="-99"/>
        </Node>
      </Node>
    </BinaryTree>
    <BinaryTree type="DecisionTree" boostWeight="1.0000000000000000e+00" itree="60">
      <Node pos="s" depth="0" NCoef="0" IVar="12" Cut="2.5370992720127106e-02" cType="1" res="-8.1109494203701615e-04" rms="3.1835505366325378e-01" purity="4.9941232800483704e-01" nType="0">
        <Node pos="l" depth="1" NCoef="0" IVar="4" Cut="4.4549870491027832e-01" cType="1" res="1.8223144114017487e-02" rms="2.8009119629859924e-01" purity="6.9962149858474731e-01" nType="0">
          <Node pos="l" depth="2" NCoef="0" IVar="-1" Cut="0.0000000000000000e+00" cType="1" res="1.3714937493205070e-02" rms="2.6960206031799316e-01" purity="7.0314723253250122e-01" nType="-99"/>
